<NUM> 0.693436 -1.159591 -1.313671 0.040030 -0.902624 0.618492 0.553853 0.547815 1.266132 -1.500766 -0.745001 -0.775525 0.582949 0.617466 0.234278 -0.989530 -0.846353 -0.396609 -0.316610 -0.601840 -0.320290 -0.402156 0.969522 -0.804635 -0.278001 -0.753750 0.488471 -1.924443 0.019203 0.005316 -2.046612 1.006983 -0.578448 0.563265 0.559051 -1.044379 1.430271 0.790715 -1.559308 -0.186978 -1.290510 -0.271154 -0.572114 0.463998 1.147347 -0.212285 1.875717 0.686123 1.468324 0.040982 0.405124 0.744933 0.681494 0.515360 -0.569799 -0.237098 -0.250446 0.894749 0.140014 0.291264 0.369035 0.585071 -0.176508 0.236958
， 0.343468 -0.034428 0.194620 -0.571703 -0.767122 -0.122910 -0.465435 0.129184 0.163061 0.433562 0.456441 -0.331092 -0.333143 0.172654 0.520387 0.222088 -0.168010 0.459668 0.029939 -0.540989 0.012905 0.920504 1.277902 0.056545 -0.640436 0.466369 0.431046 0.344937 -0.111462 0.026360 -1.632212 -0.434246 0.181327 0.096220 0.736964 -0.208867 -0.036384 0.152521 -0.573426 -0.133302 -0.515570 -0.166150 -0.012860 0.561982 -0.026045 0.231701 0.036254 -0.596470 0.320572 -0.017057 -0.918330 0.121958 0.235105 0.441894 -0.362553 0.103175 -0.362874 -0.208515 0.416312 0.475752 -0.466883 -0.255867 -0.497479 0.035440
的 -0.074040 0.617182 0.683380 0.058522 -0.171136 -0.192964 -0.408733 -0.064242 0.311990 0.015521 0.071334 -0.158899 0.058351 0.281310 0.513028 -0.376761 -0.079427 0.504634 -0.587630 -0.461847 0.155051 0.097612 0.554592 -0.126134 -0.515037 0.681914 -0.325194 0.653101 0.576853 -0.399382 -1.612102 -0.006262 0.806340 0.094274 0.022638 -0.122884 -0.196706 0.082000 0.221940 0.302891 -1.302471 -0.244677 -0.511835 -0.107430 -0.059707 0.677961 0.929498 -0.333005 -0.108891 0.107742 -0.606196 0.114399 0.987450 0.518317 0.264090 -0.165616 0.480511 -0.166193 -0.050349 0.361934 -0.112317 -0.220761 -0.265480 0.791916
。 0.450117 0.492834 -0.029879 0.110329 -0.512878 -0.534145 -0.250888 0.477728 0.392296 0.837287 0.413158 -0.202986 0.376370 0.572763 0.175600 -0.078755 -0.365884 -0.212424 0.151673 -0.280308 -0.149536 0.555110 0.347245 -0.000411 -0.256328 0.018974 0.441063 0.654543 0.461224 -0.121970 -1.415195 -0.325644 -0.607207 -0.232833 -0.061809 -0.013958 0.360173 0.630495 0.401863 -0.147470 -0.576652 0.316969 -0.667871 0.347025 -0.013761 0.623128 -0.107042 0.072967 -0.144265 -0.238775 -0.200103 -0.204428 0.242530 0.763298 0.138338 -0.181198 0.229196 0.015472 -0.100450 0.451825 0.176139 -0.199484 -0.640394 0.203922
| -0.473015 -1.054706 -0.939173 -0.646913 -0.029643 -0.524925 0.936153 0.246492 1.317609 -0.115326 -0.970464 -0.915294 0.419652 -0.228337 -0.831050 -0.833426 -1.056747 -2.072848 -0.415489 0.269319 -0.947542 0.174523 -0.131417 0.690773 0.000192 -0.167314 0.963141 -1.837436 -1.060664 0.391393 -0.770033 1.452173 0.967010 -0.732903 -0.042788 -0.516080 0.770805 0.355585 -1.847698 -1.890987 -1.479144 1.678461 0.396482 -0.700820 0.675710 0.156741 0.812753 0.746050 -0.252255 0.097418 1.034796 -0.193970 0.156976 -0.906690 -0.584861 -1.146709 -0.595311 0.704084 -0.063128 0.291391 1.326899 0.246707 -0.063687 -0.635593
年 0.981878 0.172554 -0.574015 -0.678502 -0.434950 -0.116645 0.362901 -0.251315 -0.343966 -2.028172 0.301373 -0.728138 0.884445 1.060064 0.821878 -0.610675 -0.920925 0.230402 -0.439227 -1.131349 0.089518 0.185257 1.258939 0.038301 -0.814381 -0.195328 -0.133186 -0.650060 -1.143787 -0.717039 -0.694191 -0.981692 -0.406107 0.919452 0.437212 -0.605788 0.204975 -0.356238 -1.982203 0.043965 -0.666860 -0.297924 -0.521328 0.329542 -0.271067 -0.416307 0.615334 0.510158 -0.079670 -0.263490 0.733100 0.738007 0.513614 0.075033 -0.303005 -0.957432 -0.794757 -0.113233 0.244198 0.698679 -1.101764 0.532006 0.219964 0.965413
、 0.248064 0.093812 0.105611 -0.120346 0.011486 -0.219267 -0.711903 0.092357 1.005648 0.112092 0.118419 -0.699039 0.629441 -0.225742 0.522038 -0.641542 0.111191 -0.490173 -0.437530 -0.005642 0.361010 0.646571 0.281515 0.163940 0.163398 0.168954 0.359441 0.136527 0.429272 -0.081493 -0.362173 0.786456 0.870613 0.383256 0.045235 -0.086153 -0.227249 0.165969 -0.259948 0.376807 -0.503392 0.280256 0.324212 -0.126689 -0.860935 0.075169 0.334197 -0.123651 -0.568557 0.165769 -0.563306 -0.254425 -0.064905 0.651818 0.182960 0.320635 0.081174 0.002748 0.204995 -0.182993 0.319715 0.506036 -0.592795 -0.616178
一 0.483169 0.480046 -1.135708 0.026674 -0.329830 -0.625880 0.398196 -0.587532 -0.665335 -0.837642 -0.210213 -0.514084 0.419763 -0.539824 0.038363 -0.540145 0.069447 0.950826 -0.376649 -1.128510 -0.514396 -0.161479 0.360424 -0.102911 -0.493088 -0.105548 -0.042257 -0.922660 0.676514 -1.262580 -1.451985 -0.562592 -0.083014 -0.090321 0.338037 -0.105446 -0.582973 -0.072092 -1.247648 0.104746 -0.112295 -0.122950 -0.567533 0.080562 0.583747 0.100876 1.661184 -0.401370 0.985063 0.314304 0.064931 0.191434 -0.167635 0.561659 -0.388615 0.021938 0.403598 0.185368 0.442661 0.313136 -0.752076 -0.372615 -0.796214 0.190607
为 -0.287729 -0.428624 0.533610 -0.693006 -0.374569 -0.173620 -0.057466 0.270737 0.265737 0.171271 -0.402638 -1.006376 -0.074830 -0.198953 0.469362 -0.394603 0.548690 0.561711 -0.039654 -0.505324 -0.034014 0.395722 1.279271 0.231976 -0.382871 0.338713 -0.253442 -0.000066 -0.315541 0.015868 -1.122619 -0.032133 0.170238 0.041882 0.168554 0.359000 0.033061 0.017377 -0.740687 -0.184587 -0.422052 0.024199 -0.372165 0.764358 -0.234139 -0.154583 0.528843 -0.255257 -0.036654 -0.026922 -0.599445 0.214034 0.415437 -0.493262 -0.511780 0.794023 -0.183349 0.213529 0.288083 0.294857 -0.582222 -0.056369 -0.094631 -0.494972
在 -0.184519 0.029754 0.186591 -0.395639 0.026277 -0.446765 0.316843 0.147552 -0.175636 0.170047 0.188775 -0.025874 -1.007259 -0.124150 0.219456 -0.375067 0.384040 0.156406 -0.150352 -0.493440 0.436850 0.061090 1.257931 -0.510239 -0.591872 0.618945 -0.047630 -0.625102 -0.317301 0.206775 -1.266531 -0.006451 0.810635 0.309643 0.959211 0.057687 -0.024322 -0.159276 -0.900320 0.076516 -1.221621 -0.207459 0.487927 0.036992 -0.351989 0.088974 0.582928 -0.535248 -0.015636 -0.117461 -0.161177 0.558771 -0.189040 -0.280048 -0.748695 0.104603 -0.084463 -0.552717 -0.102746 0.328856 -0.581938 0.315705 -0.122523 -0.002716
是 -0.502443 -0.139526 0.387276 -0.852748 -0.456247 -0.674680 0.190325 -0.449824 0.445794 0.538267 -0.207702 -0.362014 -0.442873 -0.426134 0.122893 -0.148733 0.224071 0.453008 0.292668 -0.376000 0.202469 -0.127025 1.172561 -0.067580 -0.749831 0.596106 0.002366 -0.813241 -0.366070 0.002968 -1.566143 0.044378 0.231904 -0.064546 0.534669 0.322416 0.143825 -0.332936 -0.566911 0.083184 -0.436216 -0.077462 0.448050 0.840109 0.062259 0.133448 0.399721 -0.642580 0.431411 0.012982 -0.275889 0.540212 0.066563 -0.165998 -0.866708 0.276510 -0.081534 -0.016105 0.399835 -0.007024 -0.606901 0.572961 0.487962 -0.105133
a -0.920726 -0.993061 0.919448 -0.147799 -0.119065 0.451270 1.340235 0.663482 2.228285 -1.110903 -1.166158 -0.180391 -0.887798 0.559813 -0.008446 -0.351984 0.289600 -0.640652 0.113923 0.287354 -0.535929 0.120850 0.510853 -1.176131 -0.246228 -0.972867 -0.109505 -1.080161 -0.602471 0.162061 -2.243338 1.626436 -0.855456 0.751504 -0.698745 -0.975842 0.265716 0.925206 -0.228858 -0.584856 -0.250697 0.080338 0.615122 0.014221 0.007508 -0.659236 0.787598 -0.358632 0.063972 0.271327 0.897816 1.025153 1.078688 0.121028 -0.658538 -0.031377 0.161676 0.942437 -0.972924 -0.960182 0.498540 1.060745 -0.871876 0.923275
人 0.356866 0.850822 -0.384207 -0.170406 -0.277619 0.138821 -0.285289 0.139742 0.525158 -0.313333 0.427002 0.689757 -0.172171 -0.777950 0.239476 -0.422348 -1.125727 1.318318 0.102834 0.346596 -0.193920 0.766603 0.427357 0.148576 -0.971766 0.325252 0.336222 -0.012807 0.207374 -0.853764 -1.285538 -0.826716 -0.523719 -0.311607 -0.276821 0.172353 -0.508476 -0.481075 -0.263338 0.136582 -1.724030 0.079781 0.777021 -0.250056 0.270148 0.393148 1.131905 0.784521 0.073712 0.713612 -0.437683 -0.029686 0.902190 0.276457 0.060751 -0.085919 -0.336735 0.541377 1.103015 -0.192548 -0.348268 -0.369070 0.278087 0.228136
中 0.229061 0.052826 0.240199 -0.483710 -0.099941 -0.159776 -0.051844 0.283969 0.244317 0.030937 0.032080 -0.711330 -0.317035 0.568581 0.792537 -0.842897 0.120965 -0.178933 -0.002054 -0.407183 -0.381054 -0.294195 1.323775 -0.065573 0.637941 0.179070 0.251163 -0.274237 -0.315571 -0.129834 -2.014072 0.175470 0.294807 -0.041791 1.125118 0.244800 -0.277432 0.235724 -0.636572 0.414466 -0.977982 0.335422 0.242689 0.476157 -0.377618 0.204652 0.525900 0.347845 0.310249 -0.008171 -1.086035 -0.301343 -0.503115 -0.051293 0.232010 0.084369 -0.127586 0.098673 0.406454 -0.097021 -0.603348 0.315141 0.033102 0.417564
国 -0.093452 0.382636 0.385977 0.098082 0.178687 0.158531 0.448307 0.540183 1.196166 -0.931095 0.555414 0.117798 0.307986 0.062978 0.757713 -1.079438 0.211067 0.524702 0.004109 0.047583 -0.071754 0.315525 0.353964 -0.083429 -0.398453 0.232656 -0.234142 0.178015 0.088570 0.151825 -0.270083 -0.300716 -0.165852 -0.948856 0.229435 -0.484133 -0.861252 0.537218 -0.920038 0.608089 -2.750122 0.105123 0.506612 -0.453226 -0.439647 -0.257438 1.106282 -0.358257 -0.111802 0.255318 -0.645409 0.209943 -0.367042 -0.514058 1.074022 0.406550 -0.464124 0.429662 0.545785 0.248163 -1.493504 -0.646875 0.399729 0.332200
（ -0.183926 0.214030 0.240302 -0.278289 -0.499717 -0.293996 -0.190473 0.025683 1.475649 0.102647 -0.065991 -0.535557 0.328672 -0.302448 0.313627 -0.492958 -0.271554 -0.468693 0.019954 -0.345854 -0.100754 0.344751 0.772554 -0.132969 -0.496542 -0.194195 -0.051088 -0.853629 -0.691143 0.333741 -0.691879 0.615884 -0.009720 0.403487 -0.293587 -0.255297 0.739773 0.447138 -0.711282 -0.292151 -0.715651 0.257682 0.718166 0.903727 -0.579875 -0.196569 0.402107 0.130519 0.106071 -0.613716 -0.234159 0.291865 0.072706 0.168683 -0.546076 0.953153 -0.444434 0.285904 -0.465037 -0.023180 0.198951 0.223599 -0.624345 -0.309874
） 0.344520 -0.151249 0.042419 -0.150049 -0.617641 -0.165097 -0.096696 0.402907 1.875711 -0.073834 -0.030546 -0.522885 0.279617 0.225918 0.661439 -0.389508 -0.766710 0.302676 0.236429 -0.564438 -0.353042 0.494123 0.618798 0.072893 -0.292203 -0.382348 -0.093744 -0.466012 -0.461402 -0.171503 -1.616228 0.391144 -0.099608 0.486150 0.501223 -0.293735 0.434826 0.800979 0.029141 -0.894507 -0.863084 0.566103 0.245771 0.994897 -0.289486 0.161550 0.413964 0.418569 0.237891 -0.641884 -0.190068 -0.022098 0.575345 0.412277 -0.537279 -0.143860 -0.746609 0.659406 0.023304 0.472809 0.039057 0.296960 -1.140310 0.218218
[ 0.322350 -0.436700 0.334490 -0.315908 -1.198085 0.077191 0.746943 0.516945 0.262029 -0.150476 -0.325375 -0.818873 -0.659111 -0.142060 -0.659445 -0.490375 -0.291601 -0.561268 0.535346 0.527225 -0.917153 -0.196724 0.552106 -0.190764 0.979149 -1.010058 0.573687 -0.188329 -0.429600 0.507869 -0.780940 1.580341 -0.283753 0.765944 -0.040058 -0.815411 1.900818 0.489760 -0.117747 -0.101130 -0.676035 0.377466 1.411682 0.490524 0.102546 -1.163521 0.465331 0.569720 0.046606 0.179649 0.246693 -0.546261 0.578005 -0.558836 0.458543 0.040241 -0.552440 1.061646 -0.360349 -0.451796 1.094134 0.929958 -0.213472 -0.316025
] 0.850293 -1.042829 -0.186831 0.056912 0.144773 0.262340 0.169362 -0.463508 0.859425 0.211045 -0.144391 -0.233475 0.286769 -0.406630 -0.402367 0.158160 -0.238004 -0.927316 0.501869 0.305579 -0.124779 0.077084 0.247492 0.347611 0.094407 -0.275245 0.572215 -0.533464 0.168672 0.107672 -0.291627 1.079754 0.840046 0.953412 -0.516249 -0.872871 0.918585 0.719052 -0.808603 -0.057251 -0.534873 0.768920 0.730023 0.137354 0.140738 -0.448704 0.914234 -0.120525 -0.479403 -0.260892 0.123993 0.196082 0.667847 -0.022159 -0.079720 -0.198396 -0.763953 0.606290 0.162601 -0.453843 0.747328 0.730455 -0.357275 -0.424883
e -0.968830 -1.052198 1.069695 0.052040 -0.173093 0.481994 1.349415 0.830677 1.813046 -0.675566 -1.116461 -0.237377 -1.124016 0.546207 -0.313030 -0.352776 0.520318 -0.744247 0.332913 0.196361 -0.011508 0.762330 0.209340 -0.910960 -0.352078 -1.078846 -0.140897 -1.227790 -0.614965 0.404947 -2.027900 1.857154 -1.277842 1.085954 -0.961788 -1.301801 0.136698 0.882339 0.128123 -0.491153 -0.261793 0.163230 0.701524 -0.295508 0.173972 -0.439724 0.798312 -0.014510 0.058374 0.580242 0.675395 0.807499 0.655172 0.209697 -0.932062 -0.052983 0.086442 0.523413 -0.612081 -1.097195 0.395000 1.197752 -1.175073 0.582297
i -0.865352 -1.144893 0.787532 -0.279119 -0.382277 -0.010311 1.149584 0.485168 2.221029 -0.659508 -1.077084 -0.387008 -1.386602 0.444972 -0.100500 -0.127027 0.438419 -0.511467 0.218708 -0.060647 -0.807501 0.035159 0.060744 -0.840169 -0.339690 -1.269257 -0.176391 -1.273737 -0.478372 0.236333 -2.056617 1.747269 -1.049299 0.469070 -1.014724 -1.018548 0.287226 1.089848 0.077388 -0.415726 -0.246505 -0.132682 0.659366 -0.468253 -0.035258 -0.135896 0.677183 0.023937 0.353366 0.880599 0.635681 0.659877 0.931843 0.231319 -0.641481 -0.209196 -0.064695 0.259476 -0.652268 -0.870484 0.502982 1.182982 -1.022556 0.691550
于 0.098171 -0.539803 0.392150 -0.168082 0.148161 -0.240947 -0.062119 0.610769 -0.585910 0.118148 -0.028875 -0.299583 -0.974662 -0.217539 0.192595 -0.643610 0.384909 -0.087897 -0.406469 -0.646257 0.048749 0.479062 1.098296 -0.411314 -0.452707 0.492582 0.280831 -0.193172 -0.249686 0.467833 -0.779419 -0.199902 0.731484 0.436069 0.651112 0.116631 0.489244 -0.180779 -1.141440 0.150756 -1.174806 -0.524841 0.211377 -0.292223 -0.229372 0.053023 0.379608 -0.588489 -0.213222 0.006338 -0.068971 0.334815 0.092697 -0.483608 -0.229604 0.089863 -0.542312 -0.282728 -0.551212 0.315118 -0.514475 -0.043049 -0.530620 0.081138
行 0.043154 0.069942 0.508790 0.110423 -0.411013 0.160396 0.155905 1.129579 -0.167016 -0.845465 -0.016435 0.070277 -0.133556 0.096566 -0.174987 -0.019540 0.083904 1.396576 -0.638174 -0.556653 0.565067 0.121498 0.669824 -0.165816 0.654004 -0.231040 -0.146342 0.228660 -0.301103 -0.753372 -0.905957 -0.448687 0.742791 0.021002 0.130437 0.088647 -0.119817 0.117858 0.636046 0.262048 -1.234785 0.401241 -0.974425 -0.488633 0.315837 0.479295 0.831841 0.243842 0.451195 -0.001797 -0.322548 0.462715 -0.049117 -0.233020 0.599691 0.433391 -0.156046 0.081114 -0.075686 -0.705594 -0.473568 -0.273557 -1.299768 -0.007855
有 -0.276006 -0.298658 0.451013 -0.654274 0.296303 -0.312394 -0.257487 0.121497 -0.484166 0.069549 -0.460195 -0.629348 -0.445637 -0.645029 0.790259 -0.240875 0.078809 1.107875 0.214675 0.182271 -0.063826 -0.141182 1.295208 -0.131189 -0.354849 0.566333 -0.474948 -0.041445 0.301752 -0.462609 -1.519965 0.171499 0.085034 -0.247770 0.539714 0.185932 0.100727 -0.251061 -0.396770 -0.178748 -0.172935 -0.339228 -0.077555 0.200024 0.301226 0.245201 1.454667 -0.003594 -0.382901 0.628793 -0.327862 0.169756 -0.175658 -0.595311 -0.663100 0.381437 0.059681 -0.430778 0.331382 0.150484 -0.761840 0.052136 0.406697 -0.177469
大 -0.317338 -0.266990 -0.699764 0.117840 -0.097865 -0.503393 -0.617631 0.376413 -0.501076 -0.776395 -0.537861 0.269949 -0.147301 -0.824168 1.128720 -1.103207 0.267187 0.278023 -0.966222 0.383476 -1.258213 0.010506 0.203554 0.323007 -0.813782 -0.514532 -0.216174 -0.294927 0.779693 -0.782262 -0.715415 -0.245242 0.615116 -0.073057 -0.472698 0.219039 -0.241029 0.232484 -0.481018 0.312234 -1.099468 0.136737 -1.292007 -0.528554 0.127875 0.129704 0.634835 0.246798 -0.532601 -0.362288 -1.495400 -0.048725 0.368519 0.064466 0.549917 0.635341 0.253995 -0.004101 1.090480 -0.149521 -1.398311 0.250524 -0.019549 -0.509496
o -0.781679 -1.117800 1.248280 0.114075 -0.381281 0.322427 1.527317 0.810537 2.059856 -0.856965 -1.172511 -0.123198 -1.384081 0.885474 -0.300057 -0.084515 0.659445 -0.851268 0.435236 0.205034 -0.405168 0.297060 -0.120578 -0.620161 -0.661192 -1.258372 -0.187359 -1.121484 -0.343342 0.203771 -1.796202 1.785387 -0.742335 0.388281 -1.261106 -0.424558 0.066750 1.033286 -0.600923 -0.735040 -0.043443 0.169112 0.689134 -0.715320 0.365477 -0.454515 0.845598 0.083776 -0.042657 1.224568 0.674460 0.806575 1.378823 0.871622 -0.974401 0.001660 -0.301573 0.486999 -0.687937 -0.961126 0.292467 0.896286 -1.134323 0.537332
r -1.148952 -1.203241 0.905437 0.128909 -0.150702 0.185248 0.876963 0.961578 1.868610 -0.667875 -1.002103 -0.329770 -0.992598 0.560070 -0.143621 -0.135703 0.292100 -0.723390 0.098432 0.026332 -0.338410 0.456128 0.396500 -0.799603 -0.217177 -1.105769 0.131856 -1.587545 -0.295622 0.413235 -2.017849 1.840791 -1.148840 0.768724 -1.065348 -1.130194 -0.106352 0.844070 -0.260793 -0.879406 0.065428 0.311415 0.671810 -0.264953 0.450653 -0.204617 0.471412 -0.272694 0.505534 0.902263 0.479513 0.663345 1.405547 0.036318 -0.675973 0.144888 -0.016625 0.707699 -1.102006 -1.141530 0.319123 1.350601 -1.003228 0.994784
n -1.376268 -1.012500 0.865404 -0.182008 -0.166806 0.463827 1.593040 0.826381 1.819487 -1.064537 -0.966311 -0.448094 -1.120074 0.534416 -0.113259 -0.023245 0.114550 -0.600502 0.286732 -0.259989 -0.543244 0.308967 0.243276 -1.076672 -0.622452 -1.222052 -0.189682 -1.279469 -0.243125 0.231787 -1.854688 1.430664 -0.957911 0.843440 -0.688538 -0.855142 -0.004797 1.076883 -0.571693 -0.401782 -0.093175 0.087838 0.816824 -0.006850 0.204413 -0.438126 0.822129 0.163491 0.351473 0.444737 0.762217 0.616152 0.761333 -0.071695 -0.581163 -0.336443 0.044420 1.142323 -0.513631 -0.885597 0.404236 1.104226 -0.912002 0.987669
日 0.373044 -0.548553 -0.227987 0.353008 -0.692683 0.548560 0.604961 0.333009 -0.194415 -0.968937 0.522610 -0.161326 0.099889 0.775531 -0.276751 -0.658026 -0.011069 0.119901 -0.171524 -0.851486 -0.338807 0.265181 1.898654 0.491734 -0.498758 -0.373367 -0.462903 -0.965938 -0.079165 0.098547 -0.302729 -0.951310 0.117095 0.358423 0.847561 -0.456400 0.572981 0.312749 -1.310720 0.166043 -0.977241 0.678838 0.607014 -0.287107 0.072786 -0.043271 0.239864 0.348143 0.244612 -0.591289 -0.031333 0.358881 -0.338222 -0.172551 0.021634 -0.113982 -0.573475 0.056635 0.346320 0.802633 -0.793889 0.208639 -0.307022 0.707395
t -0.993124 -1.018401 0.782561 0.092252 -0.487450 0.297957 1.330625 0.849771 1.881556 -0.920838 -0.981289 -0.225296 -1.086279 0.302928 0.064407 -0.226247 0.049580 -0.870629 0.357416 0.183255 -0.548743 0.235667 0.569521 -0.662767 -0.320703 -1.245492 -0.086929 -1.224652 -0.233820 0.362685 -2.092289 1.964912 -0.924746 1.047294 -0.981643 -1.077896 0.113592 0.952053 -0.042533 -0.282990 -0.266597 0.561624 0.819228 -0.333779 0.127818 -0.320471 0.840184 0.155378 0.455700 0.843859 0.598407 0.655771 0.825430 0.098869 -0.841017 -0.079022 -0.299286 0.693655 -0.480698 -0.813644 0.544732 0.962888 -1.093206 0.656228
月 0.432314 -0.027008 -0.567279 -0.317899 -0.746865 0.389759 0.629884 -0.497490 0.202639 -0.626315 -0.236068 -0.874912 0.072683 1.377394 -0.301962 -0.012290 -0.006478 -0.142495 -0.328650 -1.008925 0.334283 -0.015253 0.499640 -0.015257 0.254253 -0.314423 -0.562448 -1.345055 -0.437116 -0.787949 -0.138702 -1.300382 0.675529 0.467224 0.581544 -0.914969 0.900309 0.378079 -1.245614 -0.462701 0.285749 0.164291 0.360397 -0.038015 0.154540 0.017825 0.250869 0.665949 -0.061890 -0.241588 0.420832 -0.045348 -0.382828 0.272503 0.630664 -0.156018 -0.535658 -0.363229 0.618390 0.609373 -0.497329 0.347054 -0.428199 -0.025359
小 0.218088 0.290300 -0.164223 -0.229863 -0.578964 0.007439 -0.158339 0.013458 -0.159592 -0.132685 -0.154673 0.325566 -0.236100 -1.008986 -0.098751 -0.595497 0.211428 0.346322 -1.079756 -0.108907 -0.533263 0.025029 0.151875 0.307464 -0.133838 -0.029750 -0.316788 -0.344828 0.481622 -1.229343 -0.666209 -0.079944 0.743395 -0.039205 -0.526986 -0.199458 0.119685 0.126103 -1.336685 -0.843785 -0.026134 0.091484 -0.893527 -0.034493 0.465144 0.866504 1.107562 -0.611445 -0.285286 -0.048109 -0.305515 -0.420315 0.896368 0.400751 0.613358 0.733448 0.087345 -0.115051 0.504297 -0.729250 -0.049354 0.975502 0.592541 -0.256516
地 0.290875 -0.092051 0.492667 0.313008 -0.903252 -0.391826 -0.153339 0.208993 0.427860 0.042537 -0.334056 -0.316917 -0.257385 -1.153428 0.084828 -0.349206 0.096725 0.575839 -0.693797 -0.697163 -0.251307 -0.433369 0.060561 -0.410078 -0.643410 0.676305 0.227606 0.007712 -0.114725 0.074430 -1.184090 -0.795332 0.252015 -0.086434 0.660986 0.052181 -0.091867 0.269274 0.620150 0.242337 -1.740095 -0.381506 -0.192672 -0.583812 0.358453 1.310375 0.630327 -0.141149 -0.247554 -0.283897 -1.411004 -0.024910 -0.217406 0.121623 0.435145 -0.214669 0.780327 -0.367440 0.243741 0.078873 0.011205 -0.198468 0.340381 1.074431
以 -0.059996 -0.380234 0.035998 -0.746315 -0.685985 -0.534326 0.355355 0.435896 0.098815 0.243324 0.001124 -0.869097 -0.583189 0.097977 0.670577 -0.107757 0.212537 1.036127 0.045880 0.023794 0.460224 0.438458 1.357228 -0.072698 -0.001307 0.724973 -0.034179 -0.104164 -0.358500 -0.019598 -0.774329 0.066829 0.336217 0.255839 0.465310 0.159123 -0.264651 -0.187877 -0.083700 -0.316119 -0.459907 -0.178086 0.249851 0.442698 -0.090927 0.168231 0.903605 -0.223119 0.349757 0.039886 -0.403970 0.333410 -0.077802 -0.230595 -0.781716 0.106184 0.105674 0.169126 0.308881 -0.091081 -0.582029 0.198444 0.012008 -0.184953
和 -0.169633 0.110980 0.322943 -0.170497 -0.185440 -0.302623 -0.260663 0.256258 0.892331 0.258156 -0.150303 -0.613343 -0.025440 0.267269 0.430415 -0.433767 0.039251 0.225696 -0.212597 0.116898 0.177891 0.341579 0.708971 -0.347111 -0.092280 0.603906 0.301246 -0.151205 0.513138 -0.126504 -1.134379 0.563372 0.912449 0.375383 0.037946 0.146929 -0.174874 -0.111315 -0.409603 0.522618 -0.781218 0.099688 0.097441 0.093803 -0.406917 0.049351 0.453690 -0.242299 -0.090417 -0.011850 -0.142001 0.082328 0.320717 0.138314 0.072630 0.140908 0.201455 -0.198639 0.247778 -0.082756 -0.174371 0.416237 0.029018 0.001093
- -0.347274 -0.752638 -0.360442 0.278468 -0.164812 0.383478 0.570934 0.126023 2.348182 -0.275012 -0.909349 -0.337004 -0.102292 0.181090 -0.617378 -0.642514 -0.251361 -0.857808 0.678824 0.039746 -0.724178 -0.001768 0.395626 -0.389455 -0.215016 -0.399219 0.447948 -1.815342 -0.030200 0.167375 -0.610634 1.229854 0.394435 0.778402 -0.280261 -0.487956 0.614083 0.232364 -0.793728 -0.495778 -1.254316 0.254278 0.434975 0.214233 0.101023 -0.244864 0.621039 0.047117 0.064743 -0.837030 0.819501 0.239666 1.014689 -0.059023 -0.751735 -0.156851 0.052035 0.401196 -0.037101 -0.051162 0.172225 0.132826 -0.053747 0.357606
个 0.363774 0.296872 0.119445 -0.389890 -0.000756 0.364031 0.856723 -0.879348 -0.803225 -1.173325 -0.751490 -0.111775 -0.153840 -0.998430 -0.136367 -0.472561 0.053190 1.071279 -0.912806 -0.625826 -0.271435 -0.304719 0.010973 -0.479967 -0.153955 -0.542915 -0.309787 -0.172587 0.482084 -0.888828 -1.286011 -0.105149 0.032072 0.355688 -0.609696 -0.117074 -0.091694 -0.087084 -0.731638 0.910137 0.359949 -0.054524 -0.249762 -0.223898 0.760496 -0.032429 1.750221 -0.598906 1.073939 0.018022 0.340506 0.657101 0.525509 -0.041893 -0.268480 -0.117744 0.099066 1.246197 0.260264 0.270252 -0.434681 -0.140990 0.560319 1.077315
l -1.359311 -1.120753 1.122031 0.300054 -0.275362 0.223138 1.481893 0.794489 1.700507 -0.735938 -0.944146 -0.470613 -0.921833 0.437082 -0.121491 -0.376771 0.666344 -1.023349 0.240020 0.405844 -0.470572 0.444689 0.424062 -0.749542 -0.353723 -0.898746 -0.067573 -1.309330 -0.463259 0.237138 -2.062892 1.654479 -0.913584 0.970471 -1.201228 -1.043182 0.061040 0.750756 -0.033302 -0.601624 0.024167 0.190747 0.468320 -0.281781 0.131277 -0.235866 0.666580 0.016738 0.028306 0.815528 0.677500 0.554020 0.903438 0.107123 -0.587493 -0.058095 -0.434283 0.694967 -0.553837 -0.786989 0.452051 1.394076 -0.728606 1.112273
学 0.507185 0.869371 0.281640 -0.615072 0.117651 -0.879404 -0.793062 0.403658 -0.227598 -0.975397 -0.046067 0.089433 0.440162 -0.140441 -0.334021 -0.920618 -0.522409 0.486573 -0.352868 -0.027429 -0.486004 0.773950 0.521962 0.282304 1.440889 -0.253715 -0.039684 0.238342 -0.144259 -1.563916 -1.998276 0.703870 0.352226 -0.213893 -0.959749 0.808898 0.162980 0.020793 -0.017568 0.370076 -1.144134 0.264779 0.594551 0.729292 -1.412539 -0.756640 0.113200 -0.357627 -0.030735 -0.213365 -0.814287 -0.083959 -0.071318 -0.338755 0.322936 -0.030500 0.332749 -0.282868 1.016961 0.026694 -0.458272 0.155750 -0.065187 0.931212
后 0.032728 -0.590308 -0.393785 -0.455913 -0.223969 0.323243 0.002779 0.476530 0.046654 0.051247 0.162875 -0.348062 -0.613253 0.695108 0.790875 0.045969 -0.542975 0.024714 0.466158 -0.141852 0.071696 0.471406 1.385620 0.302260 -0.258525 0.108001 -0.397563 0.289797 -0.107161 -0.507056 -1.117931 -1.062111 0.185153 -0.041855 1.270178 0.125803 -0.383411 0.194025 -0.512781 -0.631738 -0.759653 0.261401 0.111017 0.506327 -0.133931 -0.019508 -0.132204 -0.106931 0.952056 -0.064311 -0.670222 -0.004875 0.075186 0.259810 -0.053153 -0.317567 -0.894147 -0.728584 0.074905 0.448272 -0.871776 -0.207597 -0.784114 0.227520
s -0.678615 -1.224548 0.913517 0.338851 -0.723423 0.419298 1.477695 0.906403 1.761875 -0.437562 -0.814617 -0.348420 -0.845364 0.425414 -0.001791 0.061135 0.603601 -0.825081 0.138400 0.113330 -0.405300 0.279783 0.530782 -0.521046 -0.642728 -1.176012 -0.017283 -1.232644 0.129006 0.077689 -1.686577 1.612006 -0.552580 0.889423 -1.445806 -0.932115 0.350689 1.237697 -0.119598 -0.614256 -0.218261 0.372947 0.638089 -0.239040 0.094733 -0.572277 0.561903 0.131320 0.251526 0.626918 0.515665 0.674317 1.097861 0.324059 -0.828131 -0.253624 0.032136 0.400896 -1.141899 -1.246384 0.211058 1.067445 -0.624081 0.516855
时 0.373040 -0.307878 -0.105961 -0.434664 -0.735059 0.418681 -0.049783 0.212944 -0.017029 -0.356802 0.345356 -0.072317 -0.136199 0.738474 0.282371 0.183045 -0.374692 0.255121 -0.025055 -0.371173 -0.034279 0.213024 1.192634 0.162658 -0.421412 0.172482 -0.169002 -0.357684 -0.036802 -0.282071 -1.214193 -0.755408 -0.051462 -0.255849 1.153383 0.256453 -0.484748 0.287302 -0.764078 -0.246078 -0.809382 0.348679 -0.603159 0.472001 -0.143302 0.162927 0.408530 -0.193352 0.403027 0.256021 -0.406171 0.360737 -0.163224 0.218873 -0.090137 0.124983 -0.377436 -0.645236 0.374967 0.473465 -0.812243 -0.111335 -0.639881 0.800846
了 -0.230135 -0.491593 0.354667 0.551162 0.580425 0.267673 0.625424 1.301609 -2.143421 1.423352 0.204205 -0.283852 -0.542315 0.927609 0.356484 0.099829 0.596708 0.341824 0.146802 -0.206509 0.043256 0.432363 1.272546 -1.057514 -0.721374 -0.213953 -0.371262 1.161476 0.069089 -1.602277 -1.081766 -0.478322 -0.120720 0.723410 0.371886 -0.183852 -0.069345 0.648960 -0.819575 0.464832 -1.513437 0.093561 -0.881389 -0.994123 0.153494 -0.002184 0.760941 -0.159038 0.187013 0.107841 -0.336376 0.173030 0.247314 -0.478363 -0.087801 -0.018352 0.774256 -0.500364 0.134015 0.759445 0.260403 -0.428436 0.203126 0.331722
星 -0.594170 0.793643 0.147601 -0.120578 -0.224815 0.718456 0.058140 -1.315532 0.646651 -0.155624 -0.124266 0.651735 0.151559 0.495993 -0.811069 -0.065528 0.833451 0.009137 -0.916072 -1.090441 -0.064871 -0.097381 -0.841431 1.184819 0.472445 0.471081 0.340072 -0.094320 0.405157 0.267435 -1.103489 -0.032320 0.339659 -0.010904 0.030490 -0.757633 0.839541 0.408441 -1.342721 -0.406892 -1.000116 -0.365988 0.081204 -0.851487 0.876127 -0.022658 0.795818 1.320130 0.192223 -0.927118 -0.180484 0.447386 -0.311066 0.897578 -0.096983 0.324371 -0.429079 -0.988777 -0.763237 -0.048380 -0.457487 0.866372 0.106970 0.534533
部 0.873886 -0.329415 0.549201 -0.476317 0.206162 -0.917662 -0.258374 0.256241 0.852951 -0.941723 0.225057 -0.973373 0.078215 -1.121472 0.760752 0.246813 -0.192847 0.876285 -0.360068 -0.746981 0.249349 0.283551 0.814124 0.599275 -0.014035 -0.695056 0.215137 -0.202673 1.496612 -0.320180 -0.839707 -0.587214 0.612674 -0.730653 0.010888 0.762201 0.274976 0.348271 0.118961 0.235662 -0.299476 0.135116 -0.061856 0.307453 0.000908 -0.184310 0.598313 0.571350 1.001757 0.410783 -0.877038 0.020399 -0.079075 -0.368785 0.530902 -0.154282 0.189633 0.504380 -0.178252 -0.529964 -0.807107 -0.300591 -0.585843 0.582004
c -0.732750 -1.170363 1.076256 0.067081 -0.533695 0.353597 0.851959 0.856791 1.702372 -0.894765 -1.028283 -0.186680 -0.847626 0.446027 -0.017338 0.168447 0.519908 -0.586222 0.431537 0.534430 -0.588517 0.337227 0.588531 -0.542032 -0.214460 -1.308774 0.101818 -1.025378 -0.410895 0.569817 -1.877259 1.828440 -0.519963 0.558457 -0.915849 -1.066853 0.130111 0.975634 -0.660130 -0.068513 -0.163249 0.044298 0.355217 -0.207081 0.266603 -0.495605 1.125147 0.006308 0.261776 0.520683 0.991814 0.802281 0.882550 0.236870 -0.559358 0.123083 -0.103659 0.467233 -0.471724 -0.632531 0.422665 1.295953 -0.791564 0.749514
成 -0.370831 -0.565535 -0.084170 0.334780 0.065135 -0.202087 0.659239 0.453152 -0.293041 -0.269886 -0.611989 -0.721855 0.323011 0.510183 0.549371 -0.590463 -0.457804 0.251605 -0.078039 -0.240171 0.051324 0.213635 0.646243 -0.122923 -0.433778 -0.069142 -0.427584 0.249624 0.187511 -0.564694 -1.941409 -0.377381 0.560482 -0.133412 0.303257 0.073657 -0.351920 -0.249139 -0.560470 -0.208926 -0.307254 -0.330847 -0.048463 -0.044564 -0.094539 -0.175339 0.717946 0.070771 -0.152912 -0.519587 -0.156974 0.007343 -0.046586 -0.437533 0.198778 0.631153 0.354872 -0.165902 0.189988 0.687513 -0.781750 0.398934 0.087643 0.262096
会 -0.007597 -0.400773 0.178307 -1.156077 -0.116473 -1.215030 0.169128 0.178789 -0.257674 -0.301077 0.106291 0.791861 -0.155631 -0.352381 0.277700 0.185230 0.159039 0.619759 0.366647 0.230878 -0.125216 0.366239 1.047821 -0.065225 0.245159 0.393556 0.354901 -0.519574 0.042384 -0.200199 -1.691796 -0.391277 0.561203 -0.318203 0.263604 0.318034 -0.799321 -0.057808 0.218784 -0.032855 -0.943271 0.197486 -0.376364 0.813750 0.013303 -0.143493 -0.810675 1.121304 -0.545540 0.123837 -0.025122 0.219501 -0.532256 0.186452 -0.035038 -0.044878 0.271979 0.129343 0.962009 0.314293 -0.863263 0.551823 -0.687539 0.796098
参 -0.455098 1.669606 0.154364 -1.480867 -1.795137 -0.117556 0.896478 -0.627131 -0.894864 -0.368117 0.421757 -0.154470 -0.452253 0.071593 -0.246895 0.156517 -0.170202 0.925493 -1.833669 -0.048445 -1.667980 -0.180213 0.968330 -0.104322 -0.563476 -0.160121 -0.563968 0.019150 0.423656 0.664892 0.180361 0.866395 -0.584937 0.525520 1.548155 0.807643 0.992633 1.677609 0.230511 -1.343164 -0.888245 0.025371 0.829333 0.771879 0.083065 -0.872846 -1.051205 1.431992 -1.261594 -0.064987 0.063061 -0.098133 -0.218597 -0.663063 0.018155 -0.432701 1.821253 0.581123 0.055205 -0.583468 -0.697249 -0.866178 -0.427575 -0.510524
不 -0.506507 -1.500301 -0.306143 -0.772108 0.216147 -0.395288 -0.227542 -0.139287 -1.241215 0.473189 -1.092811 0.152740 -0.658906 -0.139992 0.144390 0.257892 0.078039 1.196948 1.332562 1.375644 -0.132599 0.632864 1.061024 -0.843230 -0.429278 1.061368 -0.772809 -0.928360 -0.568416 -0.802153 -1.398905 -0.696411 -0.710305 -0.590343 0.360905 0.807662 -0.651998 -0.569100 0.758720 -0.492600 -0.213887 0.830295 0.049664 0.834963 0.449884 0.458440 0.209065 0.797777 -0.402211 0.477232 0.333212 0.555341 -0.285102 -0.702739 -0.077971 0.797428 0.510283 -0.408225 0.340064 0.493632 -1.274671 -0.159048 0.356191 -0.881291
上 0.573979 -0.464853 -0.168586 -0.431798 0.218705 -0.368499 0.326733 -0.208574 0.261612 0.355257 0.049577 -0.529333 -0.826642 0.134191 0.838809 -0.263229 0.357417 0.389476 -0.066673 -0.291690 0.140561 -1.047285 1.585845 0.143285 0.238926 -0.137109 -0.060010 -0.531582 0.273750 -0.177118 -1.659393 -0.064498 0.396636 -0.069042 0.891195 -0.392250 0.323324 0.725299 0.197769 -0.407011 -0.564595 0.108669 -0.711312 0.155871 -0.237643 0.248113 0.731290 0.126318 -0.020279 -0.066144 -0.651394 -0.662781 -0.449648 -0.245139 -0.358599 -0.403105 0.405185 0.083407 0.312676 0.062736 -0.248217 -0.286533 -0.011179 -0.190766
公 -0.432433 0.614312 -0.025299 -1.292517 -0.558699 -0.690738 -0.194930 -0.092467 0.722009 -0.458973 -0.020028 0.900589 0.899547 -0.836459 -0.745658 -0.796816 -0.629591 0.391616 0.263606 0.305743 0.153622 0.888352 -0.245666 -1.274537 0.191507 -0.075024 0.146575 -0.315097 -0.021595 0.103339 -0.358842 -0.285388 -0.163596 0.621181 0.027989 -0.634575 -0.090616 -0.493954 -0.050908 -0.098030 -1.143333 -0.375275 -1.015797 -1.013479 -0.766767 0.580054 0.603623 -0.106367 0.397016 -0.243382 -0.119808 0.080592 -0.430471 -0.406506 0.804669 -0.568128 -0.481560 -0.199826 0.534124 -0.130105 -1.128486 0.349372 -1.128524 -0.154775
文 0.105871 0.620944 0.333020 0.261756 -0.373886 -0.285810 -0.186005 -0.955308 0.169893 -0.082700 0.043405 -0.593639 0.259104 0.273910 -0.454677 -1.307670 -0.095634 0.038789 0.437707 0.518395 -0.278880 0.135871 0.552143 1.059323 0.040671 -0.202880 -0.190607 -0.183356 0.302112 0.289806 -1.076480 0.820014 -0.123412 -0.042733 -1.409804 0.034368 -0.359201 -0.224266 -0.578589 -0.079537 -0.750031 -0.196458 0.468520 -0.326783 -1.511999 -0.281804 0.900058 -0.144323 -1.130647 -0.123684 -0.360658 0.297445 -0.503502 -1.230012 0.976013 0.717424 -0.201568 0.616707 0.853489 -0.410904 -0.774436 -0.233419 -0.972804 0.569488
他 -0.988215 0.923733 0.554443 -0.284588 -0.310958 0.631988 0.710627 0.416824 -0.889978 0.687595 0.720617 0.071851 -1.138702 0.409225 0.329311 0.918782 0.521095 1.588518 0.092927 -0.237595 0.161297 0.951186 1.553928 -0.814450 -0.179214 -0.569451 -0.051620 0.679670 -0.615134 -0.712562 -1.223171 -1.033729 -0.363190 0.851252 0.456399 0.629023 -0.160696 -0.127447 -1.113308 0.214726 -0.761207 -0.396921 0.663872 0.013576 0.311448 0.114636 0.166800 -0.914265 0.707482 0.399148 -0.328309 0.070891 0.261488 -0.553871 -1.192136 -0.232300 -0.027673 -0.091551 0.466497 0.412673 -0.461160 -0.209967 0.587302 0.239942
出 -0.763011 -0.448213 -0.304144 0.679357 -0.173268 -0.466839 0.095992 0.034611 -0.676334 -0.096661 -0.098170 0.127883 -0.545241 0.159846 0.214687 -0.647431 -0.143386 0.511802 0.231062 -0.278170 -0.077667 0.297588 0.883846 -0.392174 0.029107 -0.859101 -0.526375 0.325334 -0.183434 -0.699300 -1.522424 -0.891195 0.264180 -0.018153 0.759188 -0.008513 -0.017237 0.157449 -0.071831 -0.071022 -1.219593 -0.213711 0.179912 0.003136 -0.268028 -0.283286 0.883182 0.512199 0.246149 -0.040127 -0.237552 0.222751 0.438879 -0.289189 -0.744060 0.009711 0.184542 -0.533949 0.013593 -0.142497 0.045386 -0.333795 0.071784 -0.064673
之 -0.004719 0.946765 0.339870 0.060580 -0.329952 0.189335 -0.431814 0.141389 0.221457 -0.096184 0.099681 -0.466276 0.466352 0.381625 -0.084484 -0.613367 -0.344739 0.143603 0.080163 0.081496 -0.344785 -0.009657 0.261482 0.738366 -0.362059 0.466930 -0.456275 0.725329 -0.152077 -0.107261 -1.033506 -0.416110 -0.020347 -0.583510 -0.074706 0.026704 -0.421365 0.099768 -0.359104 0.043588 -0.868776 -0.207469 -0.183024 0.100260 0.201815 0.763698 0.250218 0.084496 0.456502 0.246062 -0.870038 -0.406453 0.431033 -0.085081 0.125980 0.338530 -0.566552 -0.415571 -0.016581 0.334068 -0.607022 -0.335861 -1.290318 -0.060367
名 0.779170 0.384628 0.065625 0.484539 -0.237470 0.148597 -0.312191 -0.334998 -0.059533 0.147718 -0.220259 -0.011019 0.571230 -0.840390 -0.013606 -1.077656 0.281263 0.896386 -0.096241 -0.436501 -0.343128 0.233954 1.028972 0.527651 -0.249129 -0.144145 0.151866 0.396012 -0.460218 -0.555667 -1.282262 -0.179251 0.101152 -0.944929 -0.021430 -0.345034 0.105829 0.197415 -0.760794 -0.019124 0.065846 0.360978 0.161171 0.799280 0.193951 -0.335011 1.383872 -0.386044 -0.525097 0.200701 -0.155777 0.063779 0.887501 -0.067146 0.144283 0.016750 -0.729794 1.153682 1.000662 -0.573661 -1.093839 0.002587 -0.937073 0.141382
m -0.687131 -1.147543 0.828148 0.221822 -0.763415 0.585526 0.779281 0.918330 1.796338 -0.693105 -1.133568 0.094679 -0.787672 0.418392 -0.036502 -0.072523 0.256358 -0.662320 0.135969 0.173704 -0.386081 0.338059 0.655117 -0.524841 -0.478675 -0.829696 -0.062478 -0.956899 0.269931 0.600159 -1.871281 1.714172 -0.936899 1.132925 -1.145006 -0.867538 0.130877 0.814919 -0.337738 -0.705541 -0.174012 0.048756 0.625695 -0.252928 0.367925 -0.355287 1.249295 -0.051742 0.656582 0.644158 0.729991 1.053266 0.839051 0.302872 -0.818097 -0.279170 0.019370 0.371955 -0.520001 -0.610786 0.583044 1.097455 -0.838745 0.308317
区 0.456488 -0.295551 -0.071309 -0.754411 -0.865090 -0.855132 -0.407330 0.717747 1.262689 -0.091933 -0.548507 -0.469904 0.925916 -1.444830 0.341384 -0.738378 -0.003410 -0.514789 -0.538938 -0.672302 0.113156 -0.410580 0.305021 0.142118 -0.508373 -0.052091 0.469212 -0.905431 0.226526 0.448702 -0.499598 -0.350301 0.446706 0.109465 0.497632 0.381137 0.122438 -0.694393 0.084844 0.183332 -1.487010 0.236406 0.083939 -0.213380 0.051389 1.227649 0.244222 0.770261 -0.376892 -0.273484 -1.108028 -0.232723 -0.140632 -0.056606 0.477809 0.236013 0.032116 0.123725 0.575874 0.405600 0.448334 -0.481705 -0.277838 1.028892
生 0.200604 0.367358 0.474804 -0.201334 0.601825 -0.275506 -0.456872 0.225158 -0.068156 -0.640863 -0.224969 -0.088128 -0.100247 -0.010749 -0.245506 -0.816059 -0.314171 0.685048 -0.333819 -0.126488 -0.315968 0.810119 0.448711 0.121108 0.250337 0.682324 -0.195952 0.310935 0.183258 -1.160454 -1.818266 -0.599729 0.336454 0.475088 0.003674 0.253336 0.156076 -0.911219 -0.474949 -0.350272 -0.701108 0.107831 0.422432 0.140421 -0.260160 0.583329 -0.164451 0.568638 -0.459868 -0.172190 -0.086751 -0.022306 0.594970 0.362671 -0.561692 -0.050256 0.226239 -1.003415 -0.112452 0.178225 -0.443363 0.720075 0.341547 0.517547
d -0.939401 -0.954191 0.814566 0.411633 -0.609200 0.517237 0.939961 0.548042 1.811244 -0.637908 -1.259196 -0.283046 -1.098125 0.628229 0.294115 -0.208226 0.401896 -0.383417 0.306856 0.277119 -0.323062 0.160983 0.558158 -0.625590 -0.510429 -1.130222 0.134609 -0.809443 -0.255671 0.342776 -1.984027 1.793299 -0.721840 0.603557 -0.945721 -0.686639 0.279289 0.694720 -0.342772 -0.480404 0.273662 0.124086 0.688220 -0.323976 0.183283 -0.380147 0.988018 0.387707 0.463469 0.670310 0.488445 0.548082 1.161618 -0.014428 -0.501938 0.109532 -0.103130 0.411562 -0.612145 -0.523124 0.723635 1.259985 -1.018854 0.444143
与 -0.469043 0.258864 0.290051 -0.538876 -0.342406 -0.237794 0.060913 0.170845 0.280364 0.221221 0.163864 -0.379177 -0.259356 0.029286 0.305633 -0.326490 0.207406 0.435327 -0.211912 -0.027846 -0.023519 0.366661 0.862806 -0.144860 -0.260945 0.456969 -0.016523 0.008956 0.178702 -0.033258 -0.954037 0.344270 0.795051 0.128573 0.245845 0.154091 -0.107654 -0.121854 -0.650188 0.313451 -0.964080 0.141372 0.415591 0.029787 -0.407097 -0.078698 0.346414 -0.201213 -0.087290 -0.003515 -0.182795 0.283837 0.419455 -0.216208 -0.169608 0.038490 0.228225 -0.460506 0.200755 -0.179588 -0.365732 0.462747 0.156502 -0.264985
其 -0.696044 0.444508 0.756979 -0.209483 -0.306039 0.578878 0.436759 0.631446 -0.482615 0.223150 -0.140569 -0.470947 -0.887041 -0.059463 0.518208 0.344156 0.431595 1.446337 -0.267160 0.269289 -0.042231 0.099751 1.255880 -0.531590 0.069710 0.225258 -0.185480 0.791351 0.133727 -0.498393 -1.144603 -0.272222 0.122958 0.220424 -0.021756 0.192000 -0.231551 -0.158389 -1.020853 0.657044 -0.413204 -0.791502 0.415120 0.066612 0.192741 -0.013409 0.923605 -0.235794 0.981811 0.272484 -0.368988 -0.046570 0.158087 -0.870862 -0.162526 0.080049 -0.363158 -0.118408 -0.304783 0.577311 -0.464550 -0.735038 0.188985 0.236184
. -0.267913 -0.599107 -0.186359 0.157373 -0.347626 0.602806 0.764986 0.583450 0.925991 -0.484195 -0.842121 -0.118562 -0.035548 0.698441 -0.502766 -0.253532 -0.019746 -0.410701 0.171245 0.261119 -0.547274 -0.034798 0.500599 -0.631692 -0.399496 -0.577888 -0.051192 -1.317428 -0.040786 -0.061847 -1.563132 1.766211 -0.595230 0.927662 -0.317189 -0.262900 1.085894 0.935270 -0.259366 -0.383843 -0.689763 0.270247 0.679462 0.426023 1.004034 -0.178808 0.401160 0.034789 0.384915 -0.260086 0.231926 0.023694 0.638846 -0.309020 -0.897826 -0.115983 -0.709029 0.465580 0.139683 -0.411767 0.904966 0.923644 -0.051832 -0.003507
作 0.020007 -0.130797 0.586704 0.470164 -0.602813 0.044687 0.297175 0.346591 -0.214850 -0.084788 -0.599831 -0.116828 -0.090687 0.195255 0.146519 -0.364492 -0.213729 0.867470 -0.201395 0.164669 -0.010037 0.262941 0.994355 0.142922 -0.272814 -0.255723 -0.041144 0.685214 0.189161 -0.531796 -1.944497 0.422539 0.400741 -0.055328 0.040740 0.511025 -0.354068 -0.135050 -0.181128 -0.387985 -0.630484 -0.017263 0.036249 0.193197 -0.658170 -0.281556 0.395081 0.406745 0.278709 0.059005 0.093670 -0.176695 0.091648 -0.062004 -0.325954 0.703973 0.073779 0.067230 0.557895 -0.063114 0.036414 0.231224 -0.140699 0.339783
下 0.879947 -0.703601 0.158698 0.099561 0.332178 -0.603578 0.222704 0.299689 0.228798 0.172275 0.409711 -0.618534 -0.510089 -0.122849 -0.005193 0.112357 0.400333 0.476629 -0.106930 -0.616752 -0.283872 -0.204392 1.334201 -0.751971 0.038779 -0.513051 -0.236317 0.132006 -0.280484 -0.503696 -1.058708 -0.457443 0.258981 -0.061811 0.839178 -0.319065 0.069674 0.648195 -0.053536 -0.372200 -0.420974 -0.260260 -0.349932 -0.100931 0.497218 0.462032 0.423089 0.230521 0.132430 -0.181872 -1.024108 -0.572057 -0.121317 0.363031 -0.363876 -0.014610 0.214002 -0.202145 0.233120 0.553753 -0.164000 -0.432814 -0.263563 -0.203329
主 0.131382 0.991385 0.849996 -0.197359 -0.371749 -0.804544 -0.076231 0.039512 0.501539 -0.445642 0.011253 0.855457 0.122782 -0.602183 -0.305324 0.009691 -0.025679 0.631482 -0.769911 0.424846 -0.432826 0.166831 0.776976 -0.106737 0.323045 0.222352 -0.255125 0.225651 -0.223657 -0.085802 -1.463452 -0.137019 0.156777 -0.780816 0.412335 -0.058781 -0.487800 -0.253626 -0.270977 -0.052407 -1.210560 -0.236727 0.616867 0.265801 -0.064732 -0.698442 -0.443026 0.300508 0.087534 -0.598578 -0.134314 -0.113245 0.907888 -0.257712 -0.332724 0.119304 -0.056765 0.331228 0.226274 0.267652 -0.062955 -0.566698 -1.276196 -0.375672
h -0.757569 -1.257231 1.149626 0.495062 -0.354648 0.188873 1.136883 0.862048 2.161922 -0.574366 -1.295689 -0.253900 -1.129282 0.627856 -0.385188 0.125354 0.340311 -1.085100 0.237767 0.189141 -0.455612 0.546653 0.044683 -0.757346 -0.424666 -0.728416 -0.067949 -1.131807 -0.425256 0.250990 -1.899034 1.777462 -1.109751 0.607813 -0.826151 -0.583706 0.157477 0.805211 -0.368948 -0.305134 0.160326 0.329474 0.336054 -0.434035 0.274611 -0.474818 0.455909 0.029401 0.188738 0.970969 0.811735 0.978762 1.370884 -0.088690 -0.757647 -0.439382 -0.059232 0.507196 -0.957404 -0.627118 0.422965 1.090989 -0.768110 0.520188
分 0.171536 -0.890406 0.220510 -0.769014 -0.507092 -0.503130 -0.073490 -0.082507 0.175269 -0.678351 0.048199 -0.602191 -0.086102 -0.606773 0.657110 -0.860881 -0.079267 0.942455 0.038278 -0.679208 -0.019919 0.009027 0.281876 -0.328555 0.124494 0.519423 -0.073225 -0.222717 0.019984 -0.019822 -1.829476 -0.441817 -0.119925 0.058387 0.150325 0.106796 0.114730 -0.032132 0.208045 -0.310909 -0.189353 0.237416 -0.528655 0.700230 -0.055059 0.501335 0.880312 0.637144 0.307367 -0.210044 -0.456103 0.158156 0.622714 0.115299 0.596159 0.135643 0.330467 0.297842 0.502301 0.277375 -0.440885 -0.294070 0.108151 0.572529
斯 -0.146856 0.806386 -1.072182 0.446769 1.378391 -0.875293 0.070898 -0.516600 1.450661 1.299295 -0.369131 0.151521 -0.387051 -0.319721 0.613112 0.447242 -0.701130 0.150949 0.102338 0.156372 -0.063180 0.820240 -0.001398 -0.032539 -0.472804 0.186143 0.403612 -1.532819 -0.323186 0.822484 1.021865 0.201208 0.700724 1.127452 -0.297772 0.869301 -0.213241 0.025030 -0.527821 -0.199546 -2.484820 -0.777703 0.558295 -0.341269 -0.630029 0.151134 0.028488 -0.885148 0.635432 -0.748542 0.448383 0.540823 0.389917 -0.252458 -0.166674 0.361923 0.322934 0.379125 0.746582 0.023906 -0.221206 -0.676125 0.443716 1.467933
方 0.079128 -0.250826 -0.108867 -0.076510 -0.302401 -0.644371 0.097141 -0.323897 0.162478 -0.579848 0.050886 0.155587 0.247508 -0.483634 -0.167980 -0.303495 -0.227249 0.622201 0.484953 -0.459504 -0.090987 0.283909 -0.119675 -0.039691 0.021741 0.254576 -0.498977 0.032885 0.635427 -0.322111 -1.354301 0.119433 0.221241 -0.448092 -0.109819 -0.114905 -0.524607 0.367229 0.504693 0.051756 -1.069464 0.147719 -0.361338 -0.287041 -0.111978 0.172399 0.932464 -0.080685 0.685906 0.354639 -0.784177 -0.320124 -0.281087 -0.041937 0.525238 0.819273 -0.135393 0.195972 0.042321 -0.042505 -0.397267 -0.595621 -0.117370 0.381531
用 -0.184956 -0.134676 0.483521 0.248923 -0.322976 0.054678 0.585466 0.643146 -0.194558 -0.006123 -0.117233 -0.300014 -0.273905 0.255609 -0.113159 -0.199875 0.322980 1.270250 -0.270525 0.488769 0.526907 0.221044 1.148602 -0.555773 0.115138 0.713724 0.413939 -0.250160 0.279730 -0.715636 -1.255969 0.576087 0.146332 0.025886 0.306733 -0.198851 0.208642 0.026799 0.223148 -0.634032 -0.020093 -0.197337 -0.460262 -0.016726 -0.335760 0.137239 1.086499 -0.446419 0.402183 0.581869 -0.585398 0.389510 -0.121554 -0.341716 -0.884492 0.669192 0.157917 -0.214154 -0.136504 0.024740 0.145867 -0.336620 0.101511 0.350732
发 -0.430833 -1.215129 -0.446894 0.988912 -0.402931 -0.553435 -0.403622 0.423093 -0.358109 -0.520863 0.705787 0.481674 0.149802 0.529437 0.567219 0.004525 -0.442068 0.231342 -0.086374 -0.028328 -0.406407 -0.231816 0.545845 -0.356773 0.437827 -0.675427 -0.208018 0.259360 0.420363 -0.358060 -1.933317 -0.161898 0.821345 0.516468 0.294700 0.413652 0.129890 -0.383479 0.189537 -0.090926 -0.666663 -0.398376 0.425273 -0.394635 -0.691516 0.705849 0.685931 0.574063 0.285806 0.360443 -0.053823 0.415659 -0.113942 0.068555 -0.592147 -0.163181 -0.461810 -0.482208 0.149222 0.333199 -0.798123 0.191943 0.040225 0.016869
u -1.081765 -0.910974 0.886440 -0.108622 -0.003083 0.199851 1.720877 0.968994 2.105718 -0.819340 -0.973032 -0.467099 -0.915430 0.277242 0.038096 0.275277 0.502152 -0.620382 0.083355 0.094519 -0.369452 0.122941 0.239143 -0.944155 -0.175295 -0.756804 -0.140745 -1.137976 -0.528565 0.557016 -1.573976 1.723586 -1.277474 0.417492 -1.373668 -0.813024 0.240672 0.903788 -0.381492 -0.448188 0.273780 0.226091 0.764336 -0.043320 0.132453 -0.375839 0.525204 -0.723155 0.201384 1.114793 0.552235 1.239992 1.001769 0.605339 -0.688981 -0.216363 0.018904 0.491533 -0.989429 -0.464966 0.647085 1.129566 -1.014885 1.028465
尔 -0.121574 1.559027 -0.681805 1.223612 0.527030 -1.098182 1.379417 -0.537090 1.158381 1.242165 -1.548279 0.377235 -0.447805 -0.552489 0.265722 1.501416 -1.484680 -0.072520 0.485362 -0.252747 -0.018621 -0.013514 -0.474185 0.270395 -0.263671 0.055812 0.720884 -1.080498 -0.279538 0.861240 2.266811 -0.136890 0.539531 0.734712 0.121135 1.053736 0.817264 0.174263 -0.863362 0.142578 -1.842884 -0.124620 0.643210 0.553393 -1.143560 0.959968 0.155856 -0.430947 0.526061 -0.494491 0.484793 -0.131173 0.324897 -0.317577 -0.516290 1.309397 0.604703 -0.229273 1.142913 1.794080 -0.370550 -0.057048 -0.130715 1.107112
： 0.155862 0.090889 0.511660 -0.151556 -0.871301 -0.217389 0.355458 0.032089 0.503986 1.020044 0.264390 -0.683753 -0.103520 0.074061 -0.244724 -0.366849 -0.449987 0.330874 0.308389 -0.491087 -0.352943 0.316589 1.165109 -0.391596 -0.405728 -0.480583 -0.055292 0.115064 -0.586726 -0.319228 -1.568943 0.570792 -0.143834 -0.016375 -0.034085 -0.552894 0.911115 0.334792 -0.446927 0.028344 -0.547070 0.862357 0.132858 0.237030 0.399744 -0.618611 0.645165 0.183981 0.110097 -0.336654 -0.243982 0.111744 0.158954 -0.426105 -0.157438 0.619546 -0.204331 0.868410 -0.252510 -0.242911 0.469185 0.616688 -0.279978 -0.391167
p -0.806192 -0.953855 1.024155 -0.048980 -0.575910 0.307156 1.037412 0.622769 1.606454 -0.916443 -1.066875 -0.561232 -1.092509 0.350960 -0.258292 -0.102355 0.290694 -0.778829 0.201783 0.411311 -0.546068 0.071446 0.381870 -0.800943 -0.526756 -0.787326 0.141536 -0.942479 0.085055 0.410508 -1.866750 1.964843 -1.070494 0.890539 -0.761891 -0.506814 -0.086484 1.014883 -0.034321 -0.286742 0.133182 0.364107 0.327547 -0.277835 0.267928 -0.483931 1.009821 -0.072786 0.161781 0.688349 0.659079 0.813277 1.129293 0.452564 -0.831864 0.024037 0.296051 0.485770 -0.772294 -0.781059 0.058097 0.897972 -0.660415 0.805481
及 0.069418 0.033985 0.163886 -0.310613 -0.254106 -0.476252 -0.514588 0.559242 0.461707 -0.075899 -0.003634 -0.385036 -0.226340 -0.129106 0.769739 -0.421971 -0.167401 0.097103 -0.372901 0.201603 0.258424 0.360979 0.811243 0.145216 -0.044973 0.158850 0.345657 0.079034 0.365104 0.006950 -1.095564 0.295486 0.649315 0.347545 0.281770 -0.119929 0.165137 0.148072 -0.094934 0.103711 -0.887467 0.294256 0.271480 0.127419 -0.444484 0.059042 0.409213 0.079509 0.047325 0.331229 -0.187585 0.068077 -0.287571 0.183138 0.162430 -0.148046 0.254201 -0.329979 0.018372 0.063744 0.191236 0.250941 -0.059574 -0.087214
特 -0.214213 0.288431 -0.521134 0.821510 0.556681 -1.016522 -0.630049 -0.545544 1.498533 0.392618 -0.991831 0.420555 -0.207767 -0.707257 -0.365926 -0.226407 -0.850126 0.280344 0.049230 0.022818 -0.369190 0.295433 0.344171 0.601162 -0.537653 0.064610 0.383714 -0.351453 -0.517767 0.356538 0.108638 -0.021887 0.743587 0.470586 -0.424873 0.855595 0.252162 0.178191 0.183887 -0.162634 -2.079334 -0.372640 -0.012106 -0.180274 -0.646282 0.215929 0.516830 -0.209417 0.756335 -0.457393 0.983855 0.113774 0.487274 -0.919182 -0.685969 0.805685 0.236546 0.160756 0.494836 0.662725 -0.540843 -0.323101 0.860504 1.395241
而 -0.124610 -0.798512 0.327984 0.113817 -0.307556 0.227773 -0.182520 0.663117 -0.354723 0.096113 0.334910 -0.233939 -0.494173 0.348286 0.280286 0.362059 -0.412705 0.507712 0.340874 0.000586 -0.312908 0.482236 0.991854 -0.332371 -0.745525 0.325448 0.288919 0.232724 -0.211521 0.060207 -1.461629 -0.719946 0.246979 -0.227861 0.460780 0.073109 0.155126 -0.245375 -0.184761 -0.168654 -0.294809 -0.138566 0.002762 0.204651 0.405295 0.290647 -0.209370 -0.668054 0.301760 0.046784 -0.585156 0.199028 0.338098 0.117305 -0.225607 0.298329 -0.171623 -0.472921 0.333662 -0.079664 -0.355424 -0.028834 0.028704 0.006407
到 0.057322 -0.894153 -0.379009 -0.246164 -0.347600 0.520058 0.453763 0.661576 -0.572548 0.573797 0.732001 -0.282849 -0.942643 0.434847 0.518829 -0.723535 0.171182 0.478869 0.269899 -0.443302 -0.048212 0.268151 0.621045 -0.361979 0.410570 -0.459868 -0.140633 -0.515217 -0.222268 -0.769988 -0.667877 -0.725870 0.066363 0.529527 0.480332 -0.256168 0.166969 0.057960 -0.808666 0.061376 -0.986425 -0.134993 -0.310132 0.088972 0.359109 0.213480 0.717960 -0.139853 0.180271 0.282806 -0.291692 0.240510 0.138866 -0.082555 -0.115409 -0.590227 0.410607 -0.812569 -0.067746 0.253551 0.005323 -0.319711 0.357744 -0.134978
g -0.859092 -1.228774 0.909543 0.102915 -0.292726 -0.087607 1.173826 0.694347 1.834972 -0.680753 -0.992833 -0.379147 -0.576403 0.496521 -0.216836 -0.178708 0.750449 -0.585062 -0.107371 0.291017 -0.680070 0.575507 0.058420 -0.512507 -0.506663 -0.812151 0.504632 -1.264766 -0.219483 0.309456 -1.812303 1.837463 -0.886352 0.557698 -0.600223 -1.029376 0.168079 0.668035 -0.332991 -0.402553 -0.049871 0.264889 0.562453 -0.382429 0.353191 -0.558746 0.999013 -0.027405 0.206478 0.764547 0.604026 0.581761 0.916627 0.127544 -0.637874 -0.127987 -0.306354 0.327372 -0.729998 -0.953550 0.322120 0.975479 -0.618844 0.515781
家 0.700170 0.880446 -0.628234 -0.250719 -0.117748 -0.051788 0.078926 -0.325684 0.824688 -0.666624 -0.014400 0.687771 -0.411592 -1.005824 -0.648066 -0.280189 -0.184545 0.175192 0.047660 1.081007 0.157956 0.594441 0.554368 -0.473176 -0.398698 -0.228027 0.359165 0.279355 -0.179684 -1.059511 -0.919449 -0.404661 -0.241731 0.188379 -1.329264 -0.286329 -1.271518 -0.066715 -0.718885 0.113887 -1.018022 -0.076883 0.208243 -0.097670 -0.670045 -0.112765 0.893558 -0.005108 -0.340096 -0.480407 -0.252764 -0.756168 -0.187596 0.579433 0.203990 -0.024178 -0.074235 -0.204641 0.326823 -0.854982 -0.659147 -0.113674 0.045317 0.237335
西 1.031865 -0.232923 -0.406843 -0.477959 -0.069722 -0.151492 -0.029549 0.429739 0.789264 0.635638 -0.069267 -0.079790 -0.361231 -0.932607 1.309516 -1.167819 0.293290 -0.426264 0.344743 -0.941290 -0.761016 0.378712 -0.025400 0.031721 0.060314 -0.401271 0.221115 -1.437152 0.070152 0.148578 1.177941 0.019171 0.924578 -0.014478 0.108547 -0.379803 -0.388345 0.128161 -0.113567 0.514539 -2.033359 0.334600 0.416211 -0.289141 -0.964272 0.831484 0.386317 -0.772069 0.344958 -0.735454 -1.234994 -0.587861 0.235048 -0.333998 -0.417262 0.754833 0.258740 0.048497 -0.284402 0.205035 0.068607 -0.638448 0.295796 0.046375
考 0.061136 0.447161 0.095950 -0.965361 -0.750300 -0.618275 0.930523 -0.220141 -1.025374 0.230720 -0.441917 -0.469679 -0.729333 0.743585 -0.324091 -0.478082 -0.778189 -0.010961 -0.061090 -0.210243 -0.777801 0.123651 0.623758 0.427043 0.943882 -0.119514 0.653882 0.060475 -0.589162 -0.140451 0.117526 1.095957 -0.207402 0.647317 0.159361 0.577305 0.660247 0.319393 0.331693 -0.276068 -0.438157 0.437917 1.091664 -0.481532 -0.410569 -0.725002 0.513084 0.854653 -0.146923 0.317768 -0.087562 -0.276650 0.531066 -0.626001 1.038557 0.387611 0.599597 -0.397036 -0.150212 0.028610 -0.338390 -1.143984 0.346286 1.006003
市 0.880985 -0.133394 -0.174331 -0.373754 -0.823448 -1.002676 -0.750122 0.820265 1.360325 -0.062606 -0.510234 0.093224 0.455415 -1.635086 0.329702 -1.214653 0.121332 -0.046806 -0.484117 0.022753 -0.109239 -0.326021 -0.427558 -0.325303 0.133589 -0.179828 -0.596501 -0.065022 -0.547394 0.448196 -0.168081 -0.243219 0.349326 -0.028203 1.339329 -0.564345 -0.662636 0.077966 -0.713982 0.542386 -1.137469 0.947546 -0.085557 -0.617435 -0.930649 1.244423 0.114766 0.370367 -0.395283 0.299832 -1.092305 0.293034 -0.134780 -0.183555 0.015775 0.418194 0.055194 0.309558 -0.342387 0.823575 0.196211 -0.104840 0.158980 -0.001295
第 -0.018697 0.996440 -0.034657 -0.348161 0.309827 -0.617212 -0.809715 1.102683 0.138480 0.114398 -0.712242 -0.998030 0.166261 0.646587 1.076206 -0.199178 -0.313996 -0.384933 1.298754 -1.496757 -0.080441 -0.431934 0.039221 -1.505134 -0.753578 -0.711714 -0.689071 -0.403183 -0.391601 0.486369 0.525061 1.124165 0.038691 0.441354 0.826078 0.033164 -0.184451 0.138630 -0.411517 0.053831 -1.363418 -0.237920 -0.607087 -0.207851 0.279567 -1.344987 1.359649 0.754951 0.462472 0.091760 -0.012263 0.152735 0.213562 0.087901 -1.139713 -0.321234 -0.469985 -0.196655 -0.584430 -0.694047 -1.179390 0.396984 -0.740376 0.245012
位 0.011255 -0.229782 0.249580 -0.202784 -0.255913 -0.749867 0.090855 -0.424259 0.425806 -0.774389 -0.447664 -0.441722 -0.370948 -0.906594 0.112744 -0.192491 -0.270521 0.617649 -0.454868 -0.882710 -0.501784 -0.027600 0.409597 -0.123886 -0.078646 0.160740 0.116096 -0.302395 -0.585226 0.037269 -1.266003 -0.005001 -0.121646 -1.227844 0.460725 -0.159247 0.041273 -0.395167 -0.545344 0.506921 -0.331973 0.062401 -0.769705 1.307660 0.178114 0.003049 0.911796 -0.827300 0.818620 -0.178677 -0.240282 -0.280560 0.382777 0.322958 -0.136113 -1.243232 -0.306424 0.260678 -0.072336 0.873798 -0.735862 -0.363279 -0.147103 0.361718
可 -0.382352 -1.075173 -0.286668 -1.084782 -0.486563 -0.736059 -0.299741 0.081076 -0.597743 0.413957 -0.602077 -0.502269 -0.628660 0.263255 0.419810 0.627231 -0.193394 1.907526 0.303670 0.635429 0.018733 -0.187789 0.842788 -0.306723 -0.053258 1.375565 0.213115 -0.790385 -0.315170 0.218362 -0.969512 0.386512 -0.213825 0.126149 -0.049120 0.885990 0.194606 0.010034 0.838277 -0.927218 0.125162 0.628776 0.153411 0.946186 0.006896 1.068440 0.476430 -0.103183 -0.194641 -0.334394 0.050355 0.332614 0.082981 0.216139 -0.620751 0.419398 0.492580 -0.286156 0.456368 0.160799 -0.806540 0.327975 0.089564 0.086838
政 0.306745 0.929882 0.655983 -0.739327 -0.301772 -0.918062 -0.511414 1.245593 0.592508 -1.832297 0.101990 -0.254983 1.343539 -0.608532 -0.185521 0.191226 -0.184963 0.245150 0.183832 0.922890 0.177118 -0.091103 1.248852 -0.421440 0.633766 -0.077285 -0.521404 0.548555 1.237778 -0.134366 0.104381 -0.509104 -0.650926 -0.230722 0.356853 0.893684 -0.975628 0.165871 0.074962 0.893801 -1.559339 -0.156177 -0.205336 -0.140214 0.361820 -0.489733 -0.369520 0.231010 -0.024723 0.037740 -0.707236 0.261712 0.169231 -0.703882 1.416691 0.239976 0.048802 -0.056930 0.131575 -0.168383 -0.403242 -0.712047 -0.804218 -0.324184
法 -0.173066 0.155211 0.069296 0.219982 0.171097 -0.766412 0.565735 0.431307 0.434470 -0.137290 -0.174771 0.274829 0.290208 0.398968 -0.118681 -0.611753 -0.729511 1.365736 0.476101 0.128913 0.108177 -0.217954 1.527913 0.344809 -0.118131 0.728265 0.040471 -0.434012 -0.269678 -0.740476 -0.547996 0.056970 -0.273322 0.143872 -0.577194 0.694247 -0.287658 0.951155 0.866417 0.643960 -1.298472 0.300863 0.118020 0.477019 0.061223 -0.945478 0.412059 -0.452928 0.679770 -0.242879 -0.431913 -0.046751 -0.644383 -0.211107 0.619281 0.863263 0.371302 -0.181305 0.614243 0.034980 -0.276119 -0.518555 -0.362875 -0.207959
外 -0.384963 0.641791 0.477922 -0.532283 -0.500464 -0.116558 -0.057990 0.420277 0.020461 -0.259899 0.040388 -0.617602 -0.723925 -0.587256 0.374198 -0.131363 -0.052788 0.751038 0.152489 0.011077 -0.435454 -0.138919 0.513780 0.305244 -0.022854 0.020751 0.441405 0.547981 0.457916 0.410619 -1.198244 -0.253386 0.518129 -0.228909 0.637450 -0.275520 0.373809 1.171170 -0.127087 -0.100058 -0.664939 1.102629 0.596166 -0.054224 -0.357930 -0.048595 0.507425 0.569325 0.707403 0.558509 -0.714266 -0.782554 0.059531 -0.553565 0.310492 -0.106678 0.035280 -0.049652 -0.275815 0.131164 0.153138 -0.154189 0.195922 0.306378
来 -0.137520 -0.369105 -0.084425 -0.375778 -0.812847 -0.410281 0.445194 -0.045422 -0.279308 0.464806 0.968791 -0.252787 -0.998032 0.546358 0.265915 0.054568 -0.191442 1.198065 0.335525 -0.055267 0.462821 0.309420 0.666311 0.188433 -0.208675 0.404557 0.156130 -0.211347 -0.742660 -0.544588 -1.274311 -0.155572 -0.342625 0.261670 0.100518 -0.198629 -0.122699 0.181949 0.382502 -0.195728 -0.855251 0.420443 0.064362 0.394000 -0.709164 0.337577 -0.053941 0.292701 0.314780 -0.329020 -0.494304 -0.112663 0.167686 -0.011153 -0.734872 0.082642 0.649034 -0.130035 0.753276 -0.283388 -0.226768 0.249425 0.260399 0.300809
由 -0.311593 -0.403172 0.068682 -0.557130 -0.509950 -0.218500 0.292954 0.316982 0.160388 0.027699 -0.123800 -0.370213 -0.337373 -0.549277 0.583048 -0.116992 -0.014275 0.375265 -0.098999 -0.034687 0.278898 0.199498 1.736918 -0.314566 -0.029603 0.358676 0.264968 -0.440212 -0.194641 0.434878 -0.840173 0.085437 0.798210 -0.054057 0.495126 -0.314549 -0.091046 0.058192 -0.941665 0.145470 -0.497372 0.063898 0.104815 0.212803 -0.308542 -0.813432 0.670372 -0.463364 0.008932 0.016538 -0.028674 0.126988 -0.059301 -0.543310 -0.445556 0.004874 -0.258398 -0.073313 0.017047 -0.000725 -0.141433 0.429397 0.057772 -0.194824
被 -0.662971 -0.723115 -0.107433 -0.738727 -0.363325 -0.023262 0.029209 0.261265 0.372694 -0.121361 0.717601 -0.565739 -0.498221 -0.012990 0.412269 -0.169697 0.742550 0.811086 0.457991 -0.059982 0.168197 0.322028 1.485132 0.377270 0.072799 0.646315 0.257665 -0.329649 -0.915910 0.568086 -0.709783 -0.483366 0.710151 0.338983 0.246085 0.002093 -0.951034 -0.185976 0.322232 -0.042406 -0.005894 -0.445494 0.729652 -0.388794 -0.158227 0.176479 0.028276 0.004422 0.897493 -0.296397 0.001634 0.190415 0.090380 -0.311030 -0.126998 -0.741229 0.370139 -0.458855 0.742608 -0.385337 -1.444455 0.403444 0.474181 0.237324
这 -0.245758 0.296435 0.111684 -0.380344 -0.597645 -0.042138 0.795030 -0.187928 -0.790190 0.386779 -0.098355 -0.308092 -0.140521 -0.243798 -0.286951 0.551853 0.091303 0.803410 0.195092 -0.712067 -0.060547 -0.542843 0.548182 -0.080052 -1.117995 -0.803816 -0.367385 -0.154971 0.105583 -0.895862 -1.813640 -0.015377 -0.490613 0.576294 0.576923 0.182515 -0.729645 -0.118455 -0.918456 0.687572 0.188935 0.121172 -0.104044 -0.096992 0.822370 -0.257165 0.942386 -1.158696 1.581833 0.704493 -0.183359 0.650998 -0.371386 -0.159324 -1.362210 0.723464 0.211473 0.081909 0.356964 0.524249 -0.940928 0.062638 -0.017590 0.780063
本 0.737688 0.700367 -0.094021 0.529532 -0.360553 -0.760182 0.192922 -0.130108 0.717321 -0.565923 -0.196252 -0.258061 -0.334317 -0.706308 0.125834 -0.676817 0.059065 0.640543 -0.471035 0.086522 0.003884 -0.372198 0.774598 0.329255 -0.295416 -0.428754 -0.467865 0.208090 -0.255881 0.063883 -1.307137 -0.337335 -0.387635 -0.313594 0.025178 0.036924 -0.146303 -0.077101 -0.772912 0.151123 -0.531473 -0.248075 0.403701 -0.019874 -0.779984 -0.370365 0.784808 -0.181495 0.810336 -0.127811 -0.168566 0.269103 -0.126532 -0.620611 0.084761 0.613777 -0.106490 0.361742 0.041160 -0.532435 -0.087049 -0.360826 -0.323159 0.780704
军 0.475466 0.032576 -0.559356 0.121832 0.176316 0.749550 0.789196 0.992669 1.280441 -0.880269 0.678692 0.319615 0.470646 -0.002726 0.804113 0.174024 0.261402 -0.141351 -0.706511 -0.470528 0.489544 1.508248 0.757049 0.323471 0.275967 0.401617 -0.176605 0.065178 1.146695 -0.296625 0.193165 0.032590 -0.471220 -1.298129 0.444014 -0.013371 -0.580766 0.361316 0.115410 0.156767 -2.063989 -0.752641 0.075431 0.299049 0.611723 -0.198245 0.126490 0.953090 0.785880 0.533953 -0.920863 0.146584 -0.508552 -0.052870 0.854303 0.762823 0.208242 0.567680 0.206572 -0.449170 -1.957018 -0.301726 -0.252414 -0.156067
长 0.617438 -0.512313 -0.525415 -0.832422 0.053179 -0.186250 -0.713759 -0.439178 0.022432 -0.294083 -0.070490 -0.785067 0.363839 -0.904520 0.923924 0.512014 -0.189252 -0.567620 -0.126851 0.146465 0.181088 0.342165 1.455355 -0.125133 0.451527 0.491047 0.279074 0.410499 0.014238 -0.327485 -0.726600 -0.776487 0.258844 0.309752 0.162106 -0.353193 -0.357734 -0.009573 -0.986361 -1.119790 -1.321436 -0.278560 -0.679055 0.830148 0.391397 -0.151825 0.558267 -0.194790 -0.590841 0.009267 -0.688364 -0.010618 0.905266 0.077452 0.468400 0.395181 0.044808 0.194529 -0.669485 -0.043536 0.213986 0.565071 -1.123358 -0.254624
多 0.436828 0.023069 -0.061459 0.154609 -0.024977 -0.648699 -0.102923 -0.383902 -0.371560 0.071450 -0.383769 -0.082428 -0.076469 -0.963713 0.499768 -0.346502 -0.411585 0.787761 -0.320594 0.132590 -0.519073 0.157708 0.365404 0.008424 -0.959289 0.348364 0.185751 -0.568840 0.205305 -0.234872 -0.687511 -0.850368 0.263736 0.537023 -0.655665 0.471740 0.474341 -0.200523 -0.718648 0.051563 -0.740923 -0.080078 -0.413421 0.029293 -0.116290 0.772797 1.500988 -0.209339 0.237020 0.250294 0.398074 0.570254 0.923172 -0.232360 -0.325383 0.381310 0.168728 -0.009157 0.774675 0.671015 -0.421824 -0.371395 0.876713 0.999199
科 -0.269126 0.777106 0.250277 -0.491640 1.783507 -1.123287 -0.612409 -0.022642 0.878852 0.065481 -0.052102 -0.049226 0.803406 -0.953491 0.395835 -0.058542 0.023337 -0.581065 -0.763309 -0.327346 -0.060116 -0.663825 1.296107 0.624134 0.416030 -0.478479 0.143682 -0.223525 -0.062512 -1.341574 0.003628 1.009826 1.046882 0.369104 -0.512023 0.557194 0.357365 0.344551 -0.809945 -0.465674 -0.401602 0.491536 0.933879 0.753663 -0.603209 0.350862 0.179219 0.461199 -0.310895 -0.302492 0.147413 0.621150 0.316379 0.243999 -0.005801 0.940968 0.622571 -1.076363 0.801334 -0.222537 0.220268 -0.518033 0.456943 1.059963
子 -0.361846 0.566107 -0.701523 -0.318440 -0.147410 0.642696 -0.560689 -1.211028 1.352641 -0.057708 0.890594 0.440739 0.297672 -0.268916 -0.206534 -0.669505 -0.094876 0.289457 -0.314903 0.732923 -0.016825 0.309546 0.327744 -0.375471 1.287826 0.587789 -1.014875 0.457516 -0.178368 -0.178077 -0.938000 0.137493 0.056902 0.569208 -0.478930 -1.352231 -0.834556 -0.580830 -0.981649 -0.437893 0.469296 0.024004 -0.655578 0.912912 -0.066720 0.847549 0.608555 0.179875 0.547468 -0.825040 -0.024279 -1.269726 0.897786 0.853797 -0.132213 0.525318 0.047648 -0.248556 0.269059 0.787514 -0.560492 0.088877 -0.438438 -0.517673
》 0.058580 0.692569 0.083635 0.130989 -1.054876 -0.717630 -0.314683 -0.630667 0.305378 1.033730 -0.033207 -0.558126 0.001382 1.221797 -0.070122 -0.336070 -0.198400 -0.226035 0.977831 -0.656609 -0.206475 -0.724649 0.735487 0.974087 -0.353817 -0.842889 -0.090787 -0.133249 -0.650887 -0.043843 -2.152723 0.269546 -0.880896 -0.051110 -0.309309 0.003390 -0.186487 0.574360 0.053387 -0.637758 -1.018609 -0.237255 0.481141 0.276637 -0.092845 -0.005814 -0.006882 1.457560 0.218984 0.240756 1.014399 -0.597471 -0.016205 0.450388 -0.078323 -0.076335 -0.925258 0.312717 0.645495 -0.566810 0.070564 0.716355 -1.088458 0.160802
《 -0.018272 -0.083541 0.902656 0.734264 -0.149365 0.491751 -0.060739 -0.028634 -0.469175 0.491421 -0.522194 -0.396988 -0.639560 0.578044 -0.430157 -1.025223 0.847027 0.308803 0.644395 0.060676 -0.430277 -0.232922 1.273885 0.269104 0.044086 -0.599389 -0.722437 -0.095693 -0.567924 -0.404879 -0.143136 0.378053 0.542278 1.001568 -0.098102 -0.687888 -0.260274 0.171327 -1.584624 0.435676 -0.903825 0.573993 0.790735 -0.824864 -0.190324 -1.265955 0.596388 0.051945 0.424139 0.580678 -0.135913 0.248485 -0.102128 -0.891372 0.086456 -0.111740 -0.768704 0.429367 0.552955 -0.944235 0.098493 0.699729 0.050342 -0.423179
民 -0.325952 0.124082 0.814695 0.104468 -0.638910 0.246229 -0.187751 0.973097 0.065616 -1.482959 0.877807 0.412121 0.108390 -0.921397 -0.067680 -0.673092 -0.839931 0.661952 -0.134171 0.085625 0.422434 0.877432 0.546950 -0.491652 -0.257100 0.819246 0.198487 -0.312300 0.732264 0.074430 -0.730786 -1.435070 -0.781714 -0.599062 -0.483797 -0.466542 -0.207107 -1.122425 -0.191236 0.615770 -1.969736 0.058259 0.848422 -0.465695 0.348301 0.122494 -0.176629 0.600073 -0.759060 0.303066 -0.932659 -0.056503 -0.180078 -0.268682 0.048460 -0.191551 -0.420722 0.575586 0.852199 -0.036065 -0.244116 -0.352635 -0.348998 -0.095708
同 -0.292738 -0.078361 0.264583 -0.236489 -0.537063 0.319863 0.461662 0.151466 -0.314271 -0.441407 -0.153301 0.105766 0.195375 -0.614221 0.101594 0.027449 0.222195 1.246422 -0.144150 -0.416921 -0.350932 0.386044 0.696460 -0.410615 -0.411816 0.434273 0.068278 0.127229 -0.068260 -0.356265 -1.155255 -0.219471 0.059019 0.217545 0.462796 0.031837 -0.698295 -0.244461 -0.499321 0.358642 -0.880383 -0.485388 0.441327 0.378106 -0.306431 0.238176 0.446535 0.186609 0.024101 -0.439618 0.150893 0.047711 0.483099 -0.416604 -0.360258 0.101736 0.063744 -0.099104 -0.290391 0.369710 -0.358916 0.254973 -0.721848 -0.001559
里 0.635211 0.716015 -0.800848 0.293598 -0.186004 -0.974940 -0.098482 -0.501955 1.230054 1.161468 -0.689868 0.134072 -0.160315 -0.740857 0.724661 -0.324500 -1.248456 -0.516692 0.245292 0.173670 -0.310618 -0.213793 0.367412 -0.283496 -0.353014 -0.155406 0.233571 -1.216316 -0.768942 0.136593 0.547257 -0.297740 -0.007228 0.983970 -0.261518 0.266558 0.179164 -0.068963 -0.170006 0.466190 -1.007130 -0.170487 0.269969 0.226398 -0.586659 1.062115 0.608228 0.240444 0.601864 -1.015059 -0.413416 -0.835616 -0.329930 0.336625 -0.463934 -0.304781 0.125958 -0.062391 0.580089 0.183804 -0.476965 -0.003878 -0.181083 1.299108
对 -0.703656 0.076423 0.245314 -0.275255 -0.031242 -0.029849 0.398068 -0.053987 -0.129060 0.077412 0.386398 -0.036446 -0.295609 -0.079814 0.121946 -0.182053 0.162915 0.757709 0.333839 -0.120393 -0.222281 0.350346 1.328782 -0.413215 -0.509091 0.562454 -0.140668 -0.211277 0.128501 -0.402848 -1.199790 -0.013686 0.461676 -0.168103 0.337969 0.040075 0.003259 -0.068911 -0.570172 0.772006 -1.134451 0.252741 0.391872 -0.184343 0.244246 0.076710 0.577295 -0.628672 0.692205 0.030691 -0.178927 0.325576 0.299989 -0.173999 -0.228969 -0.129902 0.391457 -0.224740 0.216493 0.061415 -0.291382 0.098432 0.395369 -0.113507
南 0.921208 -0.817571 -0.513124 -0.880274 -0.210563 0.029206 -0.258858 0.620079 0.347174 0.545744 0.387992 -0.137539 0.161045 -0.963493 1.221574 -1.391352 0.793012 -0.264093 -0.113509 -1.152355 -0.428127 0.400997 -0.211118 0.447292 0.288208 -0.319884 -0.415711 -0.769988 0.081578 0.369084 0.687876 -0.351918 0.435454 -0.159429 0.497654 -0.465485 -0.013322 0.328230 -0.108274 0.518462 -1.967701 0.363794 0.624093 -0.633113 -0.893154 0.485539 0.217147 -0.598172 -0.004814 -0.535205 -1.736744 -0.223610 -0.110337 -0.402438 -0.000515 0.974311 -0.329428 0.202540 -0.218084 0.120006 -0.102655 -0.205148 0.244267 -0.826523
山 0.062895 1.000052 -0.976153 -0.592284 0.379583 0.279274 -0.217186 -0.288732 1.345574 0.529282 -0.436724 -0.835090 -0.328061 -0.936664 0.791081 -1.037608 0.600744 -0.899715 -0.940243 -0.322436 0.043734 -0.869747 -0.381830 0.433336 -0.038948 0.291389 -0.060188 -0.212279 -0.866475 -0.169594 -0.322715 -0.546924 0.498777 -0.660293 0.059577 -0.208661 0.205388 0.215246 -0.951630 -0.383828 -0.453862 -0.903655 0.185005 -1.162577 -0.063445 0.855139 -0.109339 -0.169094 -0.518802 -0.428392 -1.977722 -0.299560 -0.236692 -0.165308 0.106350 0.330185 0.592152 0.018161 0.782597 -0.198496 0.483536 0.093083 -0.746928 0.009820
并 -0.058373 -0.915007 -0.160721 -0.135057 -0.582190 -0.968161 0.261853 0.285146 -0.475496 0.030445 0.391895 -0.363302 -0.417529 0.108172 0.760382 0.713598 0.115995 1.025122 0.668873 -0.248639 0.221382 0.581584 0.810428 0.105926 0.369970 0.532989 0.340245 0.521594 -0.446957 0.683936 -1.655609 -0.063180 0.433915 -0.064104 0.560145 0.424719 -0.193385 -0.187643 0.800059 -0.678665 -0.376153 -1.005339 0.011960 0.474645 0.124214 0.259416 -0.435177 0.252883 0.246939 -0.321477 0.485801 0.032086 -0.640705 0.146412 -0.564815 -0.398014 -0.001717 -0.197056 0.352876 0.037783 -0.897536 0.004124 -0.312073 0.389039
动 -0.280985 -0.694751 1.173835 0.810004 0.205951 -0.145536 -0.000247 0.558149 -0.345443 0.079779 0.050776 0.711929 0.170577 0.818825 -0.239637 0.700446 -0.305072 1.461028 -0.867418 0.445884 -0.422311 -0.433328 0.862330 0.085576 0.611728 -0.759471 -0.676605 0.370872 0.279013 -0.171807 -1.505018 0.242517 0.827950 -0.783565 0.219062 -0.392520 0.080585 -0.977050 0.169154 -0.323176 -0.895895 0.700612 -0.408590 -0.332534 -0.440266 0.425335 0.330346 0.462961 0.457716 -0.135170 -0.091987 0.402339 -0.028057 0.799721 -0.014214 0.518272 0.175072 -0.424710 0.000806 0.095413 -0.107288 0.287802 -0.377282 0.388805
自 -0.361636 -0.391583 0.146621 0.314629 0.180000 -0.208381 0.696683 1.014447 -0.011377 0.267905 -0.043617 -0.024632 -0.598803 -0.020549 0.414641 0.062546 0.467536 1.356475 0.357841 -0.072513 -0.262880 0.356814 0.904145 -0.276404 -0.025049 0.305764 -0.087090 0.074315 -0.539649 -0.245802 -0.719938 -0.306295 0.367889 -0.109938 0.286570 0.118508 -0.223250 -0.539378 -0.921858 0.320316 -0.978982 -0.078900 0.473385 -0.608977 -0.011393 -0.184623 0.627376 -0.403965 -0.051188 -0.021627 -0.022604 0.050093 0.039702 -0.993791 -0.343254 -0.297393 -0.364239 -0.302619 -0.110261 -0.108673 -0.047172 -0.068201 0.212258 -0.614683
代 0.036669 0.174619 -0.001994 0.407925 -0.649566 0.019590 0.570745 -0.562458 0.676054 -0.432886 0.011247 -0.368548 0.515455 -0.263848 0.549282 -0.349064 0.072928 0.698430 -0.010744 -0.264969 0.073433 0.214454 0.666190 0.230790 -0.320216 0.201338 -0.372368 -0.358654 -0.221299 -0.395367 -0.818769 0.248976 0.030178 0.074991 0.336769 0.186100 -0.171558 0.048046 -0.488795 0.408920 -0.814246 0.510203 0.082498 0.457484 -0.841659 -0.513805 0.333053 -0.263424 -0.146424 -0.138752 0.039882 0.616176 0.509003 -0.114557 -0.140818 0.154575 -1.059582 0.023212 0.480625 0.314250 -1.187690 -0.070627 0.059368 0.357226
台 -0.135867 -0.176927 0.288966 -0.073629 -0.318721 -0.287515 0.164579 0.484390 -0.032919 -0.157172 -0.049284 0.032187 -0.439633 -0.637423 0.118911 -0.655467 0.862761 0.058524 -0.598252 -0.894413 -0.068711 -0.143936 0.389672 0.318882 0.145393 -0.983433 0.249911 -0.401626 -0.254907 0.371258 -0.770277 0.023351 0.398143 -0.437223 0.071297 -0.507758 0.164141 0.668340 -1.141581 0.637639 -0.857028 0.399425 -0.025434 -0.512293 -0.322894 -0.412832 0.547790 0.726712 0.273199 -0.355314 -0.442196 0.268808 -0.637850 -0.167831 -0.098695 -0.118600 -0.474264 0.331309 0.055530 1.444721 0.511680 0.751551 -0.777421 -0.167637
b -0.914807 -0.863073 1.103904 0.226946 -0.383334 0.570432 0.816565 0.547284 1.508356 -0.767946 -1.004399 -0.176642 -0.657068 0.305519 0.007916 0.212022 0.758845 -0.751695 0.134376 0.242297 -0.238831 0.163974 0.392067 -0.600378 -0.135401 -0.855432 0.424647 -1.052103 -0.275940 0.640991 -1.608207 1.456707 -0.798853 0.620129 -0.892512 -1.102612 0.156505 0.945979 -0.413677 -0.176425 -0.126810 0.562004 0.652743 -0.212786 0.228148 -0.340889 0.979620 0.352545 0.143499 0.932522 0.698542 0.637311 1.177265 0.126270 -0.868738 -0.236838 0.065887 0.597038 -0.981821 -0.390699 0.286793 1.214463 -0.805302 0.590171
物 0.293138 0.398080 1.130513 -0.014632 -0.412133 -0.152841 -0.256804 0.637033 -0.167681 0.042244 -0.173305 0.231280 0.355879 -0.076926 -0.842790 -0.675593 -0.612080 1.474809 -0.615222 0.463027 -0.481158 0.275758 -0.069147 0.049881 -0.740691 0.197669 0.500922 0.262664 0.673551 -0.483680 -1.874799 0.384760 0.268637 0.326548 -0.192408 -0.931319 1.358591 -0.710869 0.334184 0.239187 0.413229 -0.081223 0.802348 0.094612 -1.084488 0.366647 0.712845 -0.270962 0.354950 0.378322 -0.315656 0.133791 -0.126085 0.230520 0.054277 0.551772 -0.191433 -1.386937 -0.033687 -0.387856 -0.419551 -0.697421 0.556757 0.768839
平 0.749837 -0.751593 -0.534118 -0.846948 -0.277895 0.110712 0.264145 -0.807557 0.280095 -0.565017 -0.549573 -0.410148 0.533640 -0.360220 0.300372 -0.079193 -0.086244 -0.112446 0.210198 0.070113 -0.239814 0.627882 0.386549 -0.640454 0.071784 0.067900 -0.094442 -0.024438 0.335764 -0.024945 -0.417035 -0.386728 -0.138651 0.520738 0.242868 -0.312587 -0.602323 -0.165550 -0.755033 0.209924 -0.887329 0.148340 -0.561791 -1.134320 -0.323287 0.438348 -0.061359 -0.243024 -0.202635 -0.480021 -1.340062 0.385199 0.303018 -0.220237 0.363462 0.526835 0.080062 0.180244 -0.067276 0.384101 -0.052164 0.447239 -0.221884 -0.309194
所 0.350443 0.165181 0.427819 -0.353738 -0.480184 -0.859377 0.047430 0.347793 0.425908 -0.244758 0.095189 -0.167725 0.043362 -0.336338 0.617168 0.232565 0.272692 1.088197 0.543744 0.020051 -0.351918 0.406227 0.981650 0.172756 0.000791 0.544262 0.125682 -0.168779 -0.510199 -0.077344 -1.700431 0.641485 -0.181053 -0.248807 0.357788 0.768089 -0.305595 0.000245 0.068898 0.066335 -0.201258 -0.908456 0.741147 0.343866 -0.208328 0.622329 -0.056902 0.907972 0.379145 0.055235 -0.038696 -0.055550 -0.031399 -0.134588 0.020210 -0.929368 -0.108413 -0.369735 0.645945 0.103119 -0.737458 -0.036360 -0.129748 0.331808
等 0.102249 0.812833 0.267607 -0.455995 -0.598877 -0.382435 -0.501962 0.061503 0.684003 -0.340842 0.273925 -0.746235 0.588237 -0.388532 0.287471 -0.684372 -0.266719 0.520547 -0.481083 -0.264812 -0.175268 0.728427 0.033492 -0.032489 -0.139023 -0.268429 -0.131306 0.348124 0.347765 -0.121686 -1.522404 0.191931 -0.244198 -0.344046 -0.079369 0.657189 0.008480 -0.023337 0.249127 0.313782 -0.566378 -0.166794 -0.202056 0.297186 -0.614982 0.434548 0.147032 0.138963 0.101489 0.427542 -0.398192 -0.295921 0.020215 0.285371 -0.276470 0.397422 0.182000 0.188130 -0.208275 0.202692 0.031740 0.013819 -0.354849 0.437589
最 -0.134945 -0.965363 0.245777 -1.403888 -0.206720 -0.952632 -0.025425 0.198622 -0.741347 0.467612 -1.211829 -0.900706 -0.430295 0.202959 0.809241 -0.242852 0.377135 -1.394569 -0.314203 1.289407 -0.841682 -0.839301 0.502188 1.175703 -0.419180 0.350004 -1.306974 0.095116 -0.406952 0.127399 -1.463665 -0.924914 0.053052 -0.120824 -0.552618 0.796447 -0.433776 -0.603838 -0.395209 0.059777 -1.732545 -0.266557 -1.286512 1.193047 0.034375 0.374960 0.586095 0.104751 0.357138 0.715413 0.562816 0.485592 0.379187 -0.533168 -0.910371 -0.078512 -0.986881 0.442048 -0.216187 0.661599 -0.400042 -0.336658 1.748845 -0.847326
要 0.007225 -0.309090 0.171127 -0.720029 -0.502611 -0.831336 0.707721 -0.155567 -0.617952 -0.672748 -0.112428 0.221882 -0.879812 -0.496350 0.306333 0.565769 -0.136355 1.588343 0.090792 0.530245 0.204930 0.472187 0.697686 -0.427547 -0.089879 0.491408 -0.264988 0.029238 -0.503782 -0.654537 -1.186493 -0.108830 -0.037394 -0.157127 0.253988 0.543441 -0.407351 -0.206464 0.768506 -0.398461 -0.649028 -0.622106 -0.048102 -0.080470 0.574052 0.349592 0.113606 0.302026 0.154754 0.226758 -0.111503 0.406907 -0.353197 -0.647552 -0.536465 0.217199 0.661500 0.140386 0.595566 -0.223511 -0.293690 -0.202167 -0.170626 0.490181
口 -0.549869 -1.101402 -0.888437 0.221280 -0.830064 -0.004637 -0.247056 -0.046397 0.169899 0.350274 0.518177 -0.553918 -0.245803 -1.024850 0.710328 -0.891857 -0.277594 0.258449 0.067315 0.214520 -0.296400 -1.206891 0.394097 0.302483 -0.213618 0.283616 0.358086 -0.266619 0.808474 0.145771 0.173986 0.189195 0.304873 -0.039832 -0.285182 -0.584515 0.142377 -0.146603 0.523568 0.672485 -0.573920 0.656252 -0.287015 0.448974 0.137278 1.137008 0.577837 -0.391798 -0.240047 0.067797 -1.249601 -0.581100 0.309583 1.071924 -1.386809 -0.004822 -0.928932 -0.308506 -0.331975 -0.166546 0.537490 -0.524422 -0.153416 0.766063
也 0.038236 -0.537227 -0.036140 -0.656315 -0.712714 -1.189595 -0.226844 -0.767636 -0.051327 0.099702 0.157678 0.017550 -0.793442 -0.182901 0.439352 0.708070 -0.069632 0.712041 0.557380 -0.011711 0.234618 0.221706 0.462837 0.226246 -0.940639 0.513517 0.104958 -0.266058 -0.540614 0.347596 -1.806219 0.049498 -0.479248 -0.391537 0.217272 0.695893 -0.071636 -0.387466 0.941061 -0.602697 -0.382359 -0.328127 0.104466 1.050941 -0.089877 0.675886 -0.563699 0.386674 0.154059 -0.182926 0.471684 0.016798 -0.634271 0.146041 -1.151018 0.364333 0.086953 -0.223200 0.463269 0.360155 -1.321753 0.752413 0.160302 0.137968
经 0.579225 -0.209101 0.299465 -0.375701 -0.385058 -0.818994 0.036362 0.324990 -0.858201 -0.565450 0.347983 -0.615296 -0.432598 -0.060043 0.382969 -0.263795 -0.366980 0.639845 0.190718 0.186146 0.181890 -0.315561 0.522842 -0.002760 0.303731 0.260538 -0.026564 -0.660272 -0.640916 -0.830588 -1.136470 -0.082202 0.550063 -0.115418 0.509685 0.270487 -0.353074 0.026187 0.242595 0.146006 -0.892844 -0.125549 0.366438 -0.071930 -0.117926 -0.441119 0.053465 0.503870 -0.567208 -0.210455 0.012466 -0.023606 -0.211849 -0.735179 0.349427 0.140310 -0.478082 -0.668904 0.107112 -0.229183 -0.657234 0.319145 -0.015934 0.129946
「 -0.292930 -0.013377 0.683039 0.002851 -0.105091 0.208554 0.656084 0.624054 -0.244860 0.517956 -0.122798 -0.210870 -0.541601 -0.358380 -0.048604 -0.609758 0.601527 0.528017 0.143723 0.348382 -0.027997 -0.033361 1.253816 -0.218055 -0.439286 -0.126403 -0.788593 0.113795 -0.379391 -0.356662 -0.591966 0.095053 0.749978 0.213290 0.031237 -0.639395 0.066957 0.050626 -0.770726 0.275087 -0.465247 0.218546 0.307284 -0.172929 0.650564 -0.719770 0.986571 0.112323 0.500533 0.223007 -0.192013 0.381302 -0.088202 -0.830441 -0.663253 0.082447 -0.555925 0.457611 0.188654 -0.486047 -0.180255 0.537083 -0.041728 -0.752113
」 0.072895 0.615202 -0.200878 -0.046542 -0.801076 -0.252123 -0.176306 -0.089487 0.562300 0.475255 0.211495 0.115148 0.339465 0.461272 -0.009359 0.086965 -0.465049 0.047731 0.421515 -0.005434 -0.008377 0.147764 0.518209 0.213374 -0.573099 -0.512963 -0.133090 0.193099 -0.223146 -0.452665 -1.814843 0.321389 -0.654681 -0.085610 -0.050260 -0.212097 -0.095757 0.709403 0.130465 -0.361008 -0.896924 0.296065 0.072521 0.481460 0.063311 0.356295 -0.143035 0.545517 0.269318 -0.209806 0.072443 -0.444643 0.210078 0.796422 -0.217585 0.116001 -0.416799 0.203504 0.187476 -0.028714 -0.280155 0.305590 -1.162008 -0.120454
前 -0.327467 -0.142855 -0.512762 -0.324404 -0.294752 0.021277 0.213831 0.661081 -0.078174 -0.620860 0.211027 -0.412026 -0.750389 -0.054379 0.850806 0.059689 0.104811 -0.155549 -0.113545 -0.392223 -0.031470 -0.301137 1.594559 0.079743 -0.267212 0.186459 -0.538171 -0.153619 0.094742 -0.349071 -0.770112 -0.651502 0.121865 -0.385888 1.209991 0.070108 -0.223547 0.309451 -0.593168 -0.241721 -0.955601 0.487747 0.195584 0.540055 -0.053760 0.166779 0.271028 -0.155621 0.673890 0.021468 -0.400755 -0.176100 -0.283704 0.024480 -0.221923 -0.507488 -0.914910 -0.443615 -0.296264 0.202695 -0.483037 0.129860 -0.715754 -0.067522
开 -0.098727 -0.600367 -0.165988 0.493874 -0.337711 -0.238715 0.424232 -0.007269 -0.367460 -0.372988 0.345343 0.699853 -0.468529 0.167675 0.742959 -0.075734 -0.137780 -0.258808 -0.302123 -0.129450 0.270118 -0.602180 0.593117 -0.240753 0.294650 -0.262787 -0.414681 0.151945 0.037960 -0.233826 -0.969878 -0.526655 0.644117 0.337799 0.268561 -0.283744 -0.363853 1.121512 -0.071730 0.040801 -1.048643 0.347642 0.340225 -0.493819 -0.739818 0.828694 0.420127 0.208052 0.389750 -0.261919 -0.190837 0.714972 -0.601010 -0.623863 -0.425346 -1.047367 -0.267596 -0.175107 0.469619 0.039910 -0.505780 -0.162423 -0.621376 0.157316
海 0.180696 0.672760 -0.579658 0.141805 -0.427165 0.059558 -0.544160 0.432866 1.151435 0.522719 -0.134554 -0.622920 -0.277326 -0.315118 0.313897 -1.139861 0.184354 0.251302 -0.804373 -0.195484 -0.432974 -0.085136 -0.131645 1.226203 0.167295 -0.508565 0.286580 -0.583702 0.461482 0.262189 0.458063 -0.802386 0.758380 0.217196 0.583216 -0.746515 -0.244865 0.736255 -0.304644 0.263908 -1.582373 -0.187542 0.258232 -0.227220 -0.008164 0.735581 0.204684 -0.094586 -0.261230 -0.145195 -1.356682 0.438666 -0.632146 -0.867465 0.056714 0.565620 0.896126 -0.442429 -0.115913 -0.280635 0.097013 0.386643 0.770679 -0.267351
德 0.218763 0.461418 -0.761606 0.542005 0.826589 -0.471835 0.217710 -0.310163 1.084083 0.076824 0.358183 0.335970 0.061629 0.416512 -0.193595 -0.964064 -0.645247 -0.106168 0.517351 0.468730 -0.118022 0.614238 0.547939 -0.337413 -0.812786 0.127708 0.374585 -0.899899 -0.219299 0.634299 1.031368 -0.142954 0.523260 0.896629 -0.658343 0.961223 0.148999 0.170602 -1.206362 0.576449 -1.617675 -0.053826 0.106490 0.008198 -0.758114 0.629627 0.201326 -0.677877 -0.156789 -1.343489 -0.621240 -0.358747 -0.137272 -1.271782 -0.197503 0.470522 0.160152 0.494264 0.074383 0.695747 -0.844533 -0.466700 -0.025147 0.707593
天 -0.065050 0.483468 -0.416242 -0.479480 -0.185868 0.071731 0.450121 -0.492420 0.792787 -0.199754 -0.056718 0.298997 0.129766 0.843157 -0.691121 -0.501664 0.643779 0.255069 -0.316893 -0.459307 -0.423112 -0.347018 0.045532 0.956569 -0.114648 0.130051 -0.347377 -0.416670 -0.231537 -0.469658 -0.559793 -0.820001 0.417116 -0.051828 0.373450 -0.051077 -0.243310 0.149218 -1.588443 0.369469 -0.484042 0.908439 -0.178719 0.092587 0.502578 0.484327 0.527785 0.368883 0.026697 -0.410933 -1.213216 0.627160 -1.172994 -0.861790 0.101458 -0.144387 0.063277 -0.666145 0.016834 0.378012 0.038860 -0.052334 -0.535473 -0.644384
任 0.373633 0.004929 -0.203323 0.141248 0.282693 -0.287130 0.319506 0.836688 0.033608 -0.389771 0.480105 -0.369026 0.242307 -0.306840 0.352721 0.078054 0.914503 0.549313 -0.811019 -0.855138 -0.312424 1.145161 1.253402 -0.033905 0.640415 -0.000269 0.239176 0.129931 -0.784840 -0.542280 0.029932 -0.229912 0.249644 0.032425 0.293030 0.439517 -0.503130 0.308810 -1.505632 0.864209 -1.172546 -0.173905 -0.162908 0.386559 -0.377334 -0.682884 0.158124 -0.030873 -0.156003 0.532437 -0.321278 0.338039 -0.083078 -0.905651 0.545917 -0.137355 0.040871 0.542515 -0.237755 0.695939 -0.505043 0.076004 -1.125096 -0.311114
北 1.238931 -1.143200 -0.390185 -0.809665 -0.442754 0.636157 -0.389070 1.061631 0.262416 -0.100679 0.127125 0.082955 0.063892 -1.233022 0.990493 -1.160650 0.919954 -0.443558 0.218344 -1.234255 -0.640357 0.093047 -0.276552 0.370907 0.160661 -0.216107 -0.642584 -1.195912 0.298073 0.000794 0.139551 -0.578783 0.636983 -0.174326 0.751424 -0.536861 -0.073960 0.499285 -0.007879 0.384331 -1.986796 0.644671 0.644541 -0.568065 -0.540876 0.163780 0.092860 -0.517279 0.108589 -0.322262 -1.636131 -0.415599 -0.315334 -0.469412 0.115267 0.200447 0.282584 -0.074225 -0.473777 -0.035413 0.113419 -0.489301 0.186744 -0.961748
现 -0.367795 -0.197173 0.796003 0.013402 0.016344 -0.267166 -0.157749 0.529342 -0.583684 0.532492 -0.145798 -0.202483 -0.208479 -0.043142 0.161151 0.109347 -0.302427 0.110502 -0.059301 -0.267019 -0.292996 -0.241130 0.916347 -0.204326 -0.905485 -0.016270 -0.176688 -0.071089 -0.342289 -0.340142 -1.880219 -0.446801 0.319569 -0.302499 0.466482 -0.124467 0.491390 -0.063851 -0.587710 0.487664 -0.510248 -0.058703 -0.001018 0.179419 0.248336 -0.163132 0.294781 -0.566449 0.390861 0.306517 -0.534076 0.369633 -0.197612 -0.397324 -0.417608 -0.112707 -0.553966 -0.069775 -0.706656 0.132646 0.022270 -0.012695 0.546253 -0.071614
罗 -0.263923 0.321018 -0.519389 0.507897 0.380872 -0.412406 0.037077 -0.465114 0.664508 1.522584 -0.350966 0.144938 -0.048582 -0.372573 0.087725 0.274369 -0.030038 -0.221625 0.186413 0.331278 -0.156516 0.568813 0.226909 0.100133 -0.481304 0.154797 1.087076 -1.130380 -0.167759 0.151473 1.124599 -0.243417 0.896092 0.734333 -0.856966 0.231548 -0.010810 0.887810 -0.639827 0.405985 -1.336977 0.294890 0.893788 0.009257 -0.297736 -0.012890 0.330321 -0.507799 0.282044 -0.613537 0.148779 -0.463629 0.369366 -0.340941 -0.408277 0.330400 -0.161848 -0.203190 0.824736 0.213500 -0.614020 -0.450344 0.405582 0.807920
新 0.011940 -0.480095 0.304789 0.378781 -0.576789 -0.443061 -0.071577 0.760911 -0.443362 -0.932366 -0.193539 0.218067 0.076847 -0.335104 0.468396 -0.718909 0.284298 0.123218 -0.404706 -0.479186 0.346909 -0.707896 0.536802 0.289647 0.172928 -0.104287 -0.445229 0.110202 -0.065105 -0.335625 -0.575717 -0.095800 0.679456 -0.328173 -0.219548 -0.578066 -0.554196 0.735652 -1.104999 -0.105980 -0.931802 0.234639 -0.111897 -1.415836 -1.438566 -0.094331 0.585205 0.284028 -0.466211 -0.106772 -0.749531 -0.107625 0.469065 -0.635304 0.189201 0.042737 0.020700 0.013143 0.369446 0.298396 -0.135437 -0.104453 0.457998 0.373999
高 0.516913 -0.249850 -0.149793 -0.335399 -0.056783 -0.248905 -1.080069 -0.141259 0.060214 -0.317389 -0.791061 -0.522644 -0.742843 0.058126 0.222201 -0.422362 -0.225856 0.059990 -0.962080 0.246229 -0.828390 0.164070 0.274567 -0.326610 0.378964 0.480314 -0.271892 -0.255575 -0.349922 -0.230065 -0.310480 -0.248607 0.047935 0.139871 0.020300 0.624610 0.115138 0.698615 -0.743071 0.333698 -0.754724 -0.535393 -1.237190 -0.128542 -0.067623 -0.025783 0.952548 0.043554 -0.956141 -0.844896 -1.170751 0.278918 0.405719 0.019323 -0.153680 0.543265 0.548825 0.328410 -0.021371 0.600120 -0.460479 -0.461160 0.192777 -0.484897
加 -0.077103 -0.848139 0.056037 0.199893 0.322435 -0.424257 0.196140 0.143856 0.110336 0.519975 -0.064362 -0.408863 -0.743948 0.265225 1.162857 -0.394261 -0.172291 0.416247 -0.402560 -0.042247 -0.032121 0.526192 0.738819 -0.171443 -0.155286 0.543868 -0.047684 -0.610823 -0.429921 0.025916 -0.014570 -0.553865 0.699892 0.930359 -0.006695 0.213986 0.439791 0.493700 -0.251153 -0.423657 -1.126338 0.246224 -0.558590 -0.194360 -0.661678 -0.051056 0.221324 0.397478 0.238042 -0.369744 0.548435 0.195864 0.762044 -0.517066 -0.451771 0.555163 0.951535 0.188181 0.534432 0.612345 -0.438375 -0.851959 0.352369 0.930223
电 -1.020711 -0.869926 0.730104 -0.087796 -0.223057 -0.354395 -1.864245 -0.185873 0.403510 -0.518604 0.743791 0.891067 0.103498 1.191423 -0.052321 -0.492777 -0.141318 1.146190 -0.628206 1.058901 -0.016669 0.321985 -0.435479 0.473464 0.652914 -1.076656 -0.300931 -0.535690 0.253659 0.430713 -1.277450 0.851110 0.795405 -0.445136 0.909190 -0.211917 -0.378572 -0.675237 0.012071 0.882054 -0.152010 0.755147 -0.139229 -1.094711 -0.113172 -0.192423 1.075081 0.146158 1.308343 0.284812 -0.378398 0.019161 0.567156 -0.249766 0.013836 0.176775 0.445331 -0.099324 -0.320484 1.392486 1.090002 0.499055 -0.185595 0.025330
东 0.746439 -0.659351 -0.378740 -0.613907 -0.440258 0.164723 -0.327278 0.554556 0.170291 0.059003 0.059459 -0.414324 0.296590 -0.968512 0.891251 -1.096671 0.993983 -0.439740 -0.041619 -0.607026 -0.539443 0.320357 -0.113474 0.313627 0.331846 -0.459987 -0.181362 -0.991969 -0.065860 0.174151 0.486667 -0.071067 0.329547 -0.331206 0.272214 -0.320954 -0.028032 0.543598 -0.397762 0.463904 -1.849861 0.310108 0.568123 -0.747786 -0.846557 0.594400 0.137759 -0.552998 0.065012 -0.258346 -1.696877 -0.417655 -0.110329 -0.448291 -0.326323 0.478471 -0.228239 0.361280 -0.260216 0.334821 0.094587 -0.190513 0.070337 -0.762437
· 0.827752 -0.042955 -2.087252 0.704571 1.519873 -0.328642 -0.403939 -0.979307 0.854592 1.351966 -0.583470 1.093209 0.099670 0.244944 -0.072860 -0.545812 -0.471183 -0.326545 0.557985 0.530913 -0.642358 0.331174 0.191814 -0.205107 -0.578362 -0.526109 0.771606 -2.134815 -0.198104 -0.056600 1.093094 1.160632 0.817547 1.612266 -1.015745 1.263742 0.164215 0.246741 -0.993300 -0.755237 -1.054741 -0.572801 0.051013 0.112278 -0.067105 -0.738605 -0.602552 -0.508351 -0.184449 -1.281697 0.980111 -0.474619 0.294259 -0.392057 -0.012108 0.297216 -1.001438 0.250826 0.723291 -0.223328 0.109519 -1.246014 0.764049 0.830532
面 0.782779 -0.664748 -0.158443 -0.761850 -0.438010 -0.208899 0.171706 -0.856223 0.480792 -0.370943 -0.270203 -0.349651 -0.554913 -0.172015 0.895876 0.901375 0.241273 0.971631 0.397285 -0.172909 -0.031838 -0.733485 0.162804 0.072402 -0.876586 0.278063 0.006919 -0.087279 0.932842 -0.496690 -1.369617 -0.362634 0.856068 0.025142 1.314612 -0.572449 0.118174 0.435493 0.737920 -0.359793 0.147268 -0.284839 -0.015534 -0.105214 0.358762 0.508477 0.514707 0.285038 0.591301 -0.347052 -0.783618 -1.006927 -0.705188 -0.124311 0.206520 -0.313929 0.100367 0.653707 0.514029 0.062173 0.456468 0.010454 0.245342 -0.025877
利 -0.420271 0.067071 -0.282113 0.553500 0.264909 -1.365013 0.054125 0.652055 0.639800 -0.081202 -0.605831 0.582976 -0.219428 0.284665 0.546778 -0.265941 -0.897693 0.416799 0.562678 0.812839 0.348463 0.574139 0.459348 -0.696839 -0.686976 0.555649 0.786103 -0.890532 0.032296 0.409268 1.141466 -0.550253 0.830127 0.513181 -0.240246 0.685314 0.715903 -0.065460 0.082147 -0.069117 -1.759160 -0.406325 0.396792 0.196030 -0.299916 0.612382 0.565415 -0.526585 0.169285 -0.727563 0.217471 -0.430004 0.478319 0.032784 -0.066624 0.864733 0.446201 -0.145100 0.049574 -0.116694 -1.104558 -0.822025 0.000487 0.753407
因 -0.239005 0.136347 -0.168626 -0.330583 -0.132954 0.181771 -0.258565 -0.090166 0.350520 0.047583 0.398522 -0.213892 -0.721960 -0.381214 0.305634 0.446285 -0.528151 0.556824 0.124086 0.211114 -0.096092 0.594892 0.759443 -0.147610 -0.633645 0.128160 -0.185204 -0.283456 -0.237965 -0.065956 -1.166368 -0.230192 0.119227 0.185357 0.417513 0.538500 0.023445 -0.681147 -0.672665 0.358875 -0.421423 -0.525529 0.860974 0.165421 0.082212 0.554610 -0.468395 -0.332202 0.227875 0.159374 0.069572 -0.012046 0.326480 -0.409941 -0.640858 0.196417 -0.376670 -0.272070 -0.064074 0.166908 -0.760691 -0.037578 0.089547 -0.001816
林 -0.307839 0.453406 -1.508589 0.212192 0.485896 0.227801 -0.632342 -0.275293 0.685312 0.526325 -0.633287 -0.416054 0.261360 -1.155611 -0.395056 -0.797037 -0.391514 -0.062684 -0.216041 0.593695 -0.194035 0.606877 0.426971 0.357666 0.397482 0.099086 0.317265 -0.232925 -0.920862 0.007725 -0.063458 0.304650 0.581290 0.597172 -0.796185 -0.161213 -0.114033 0.362467 -1.069635 0.150099 -0.853636 -0.414536 0.434970 -0.218099 -0.824909 0.624891 -0.215238 -0.207065 -0.530947 -0.617983 -0.316993 -0.787449 -0.536961 0.235956 -0.005274 0.299427 0.191926 -0.419215 0.688147 -0.372687 0.038378 0.263333 0.147033 -0.193323
道 0.216453 0.027571 -0.354497 -0.790046 -1.004122 -0.356929 -0.582287 -0.272886 -0.199161 0.944889 -0.053268 -0.287876 0.250247 0.017103 0.443691 -0.497511 -0.260652 0.319373 -0.046168 0.313776 0.462256 -0.031013 -0.669275 -0.010157 0.419314 -0.745000 -0.183671 -0.991794 0.064358 -0.182988 -0.699300 -0.186686 0.603114 0.029767 -0.173614 0.124226 -0.738910 0.021137 -0.478555 0.359504 -0.576247 0.482051 0.173602 -0.154272 0.985789 0.662039 0.846284 -0.114868 0.141412 -0.566659 -1.311523 -0.557215 -0.635630 -0.698819 -0.381172 0.585125 0.111761 -0.182363 -0.183171 -0.109396 0.311183 -0.680228 -1.507367 -0.334297
三 0.917370 0.476390 -1.385128 -0.011041 -0.022625 -0.274669 0.145597 -0.708692 0.105152 -1.313459 -0.380142 -1.433524 0.927894 -0.709514 0.048093 -1.263447 0.454223 0.503198 -0.141182 -1.150171 -0.062833 -0.316556 -0.509993 -0.606452 0.048864 -0.090215 0.207375 -0.412089 0.420777 -1.156577 -0.096139 -0.386183 0.267767 -0.105826 0.287213 -0.220267 -0.227511 0.033980 -1.393864 0.577238 -0.385566 0.679184 -0.631938 -0.346740 0.522748 -0.450445 0.878437 0.440867 0.555029 -0.147059 0.029304 -0.205931 0.432252 0.336052 0.138980 0.214441 -0.195650 0.076764 0.392487 0.020860 -1.224073 -0.063974 -0.783345 -0.386261
种 0.218578 0.211342 0.644888 0.170457 -0.587835 0.359642 0.211337 -0.637093 -0.276660 -0.672336 -0.265154 -0.666647 0.500995 -0.865909 -0.192318 -0.597209 -0.087312 1.284413 -0.969877 -0.246654 -0.246339 -0.735641 0.295539 0.174073 -0.384682 0.904229 0.170178 0.659428 0.835166 -0.970178 -1.232789 -0.238938 0.339154 -0.108362 -0.614084 -0.454219 0.224663 -0.324145 0.525311 0.475461 0.382551 0.183218 0.462993 0.091917 -0.091197 0.284903 1.016452 -0.340834 0.639496 0.327996 0.590679 0.766888 0.137820 0.605917 -0.839078 0.790305 0.500652 -0.052887 -0.322891 -0.303329 -0.575356 -0.115418 0.777198 1.140013
f -1.009937 -0.796885 0.529157 -0.449686 -0.729140 0.088481 0.906381 0.749756 1.937881 -0.306113 -1.187895 -0.522989 -0.686388 0.124147 -0.202383 0.429574 0.170348 -0.797371 -0.066936 0.240405 -0.273625 -0.204179 0.424430 -0.635634 -0.676573 -0.803919 0.039808 -1.306435 0.096803 0.764100 -1.734442 1.817216 -0.826887 0.403771 -0.763801 -1.198216 0.577266 0.953651 0.139436 -0.506925 -0.132008 0.066286 0.546205 0.101208 0.068705 -0.207755 0.641645 -0.113479 0.420662 0.787878 0.467369 0.432254 0.322363 -0.013168 -0.424046 -0.268562 -0.021920 0.247654 -0.494647 -0.383252 0.288808 1.072111 -1.050845 0.142428
员 -0.464462 0.208700 -1.163083 -0.631734 0.293709 -0.872612 0.643429 0.408545 -0.075396 0.305420 -0.250436 -0.249329 0.087311 -0.284878 -0.526138 0.904879 -1.096416 -0.087671 -0.174374 -0.033005 0.479027 1.753873 1.557164 0.936482 0.308209 -0.813842 1.134966 0.434245 1.190877 -0.173560 -1.513469 -0.638315 0.759066 -0.165455 -0.668002 0.349159 -0.667633 -0.474964 -0.054401 0.092170 -0.300113 -0.289501 -0.640848 0.826717 0.703332 -0.949808 -0.080356 1.224182 0.061010 0.211789 -0.294036 0.228766 0.063051 0.175850 0.218708 -0.715953 -0.388831 0.383880 0.551546 -0.493354 1.016069 0.310636 -0.909968 0.448902
亚 -0.085945 0.484925 -0.011312 -0.159910 0.898903 -0.552695 0.025484 0.144986 1.128136 0.196554 0.241414 0.277854 -0.364116 -0.365397 1.116948 -0.564902 -0.167718 0.256388 -0.374299 -0.388160 -0.773153 -0.129568 0.301596 -0.289293 -0.424996 -0.780078 0.126320 -0.982405 0.380819 0.472746 0.559077 -0.304926 0.169382 0.585203 0.328460 -0.238793 0.250024 0.010235 -0.768192 -0.042073 -1.936527 0.221279 1.000725 0.233966 -0.556732 -0.046762 0.619063 -0.835123 0.190939 -1.165107 1.016086 0.134983 0.120345 0.285395 0.069087 0.658927 0.815050 0.102619 0.167151 -0.210569 -0.730591 -0.178309 0.530637 0.546201
组 -0.263077 0.536442 -0.217230 0.118152 -0.518339 -0.821468 0.427453 0.348699 0.310335 -0.302811 -0.573245 -0.520192 0.629248 -0.517080 0.116128 0.203562 -0.508853 0.127593 -0.653374 -0.918691 0.785492 0.443360 0.733282 0.265140 0.457446 0.275758 -0.044847 -0.048575 0.508735 -0.230374 -1.914533 0.772852 0.824894 -0.970079 0.166071 -0.079130 -0.263997 0.105621 0.090192 -0.193245 -0.137778 0.182056 0.196806 0.019026 0.401634 -0.258577 0.027155 1.230656 0.434416 -0.326162 0.800473 -0.214907 0.471822 0.027280 0.338653 -0.192987 0.230106 0.766087 0.371040 0.141815 -0.113607 0.484933 -0.230429 0.453328
内 -0.018314 0.475300 0.780612 -0.183542 -0.157115 -0.809079 -0.175080 0.337657 0.802167 0.538850 -0.556167 -0.752509 -0.655238 -0.845867 1.010258 0.162022 -0.517374 -0.040555 -0.234802 0.376083 -0.316743 -0.338646 0.949862 0.446251 -0.121314 0.295243 0.294886 -0.518760 0.251230 0.786013 -0.353082 0.251617 0.836996 -0.026044 0.576029 0.057781 -0.370490 0.160507 -0.061113 0.222817 -0.404302 0.377046 0.262327 0.433471 -0.493838 0.853721 0.660585 0.755340 0.715671 -0.224339 -0.733913 -0.633224 -0.344041 -0.294051 -0.198915 -0.500214 -0.454379 -0.305612 -0.254153 0.768648 -0.537360 -0.227314 0.074859 0.807656
教 0.281913 1.376332 0.704369 -0.328637 -0.037804 -0.516213 -0.080930 0.636810 0.765030 -0.447506 0.168107 0.693467 0.579562 -0.288908 0.412784 -0.433657 0.067209 0.254446 -0.020562 -0.015258 -0.285434 -0.060221 0.442407 -0.115189 0.706297 0.313866 0.309431 -0.143845 0.183813 -1.076995 -1.284939 -0.032262 0.321766 0.018095 -1.118930 1.032563 -0.423703 -0.387911 0.016019 0.822508 -1.231303 -0.018951 0.029675 0.782222 -0.024232 -1.509549 -0.079098 -0.587086 -0.389788 -0.664793 -0.752456 -0.164181 0.001825 -1.196418 0.091181 -0.474606 0.140836 -0.167363 0.760634 0.404002 -0.468567 -0.255183 -1.003931 0.246642
建 0.431727 -0.743342 0.015425 0.060301 -0.724179 -0.291618 0.381626 1.207576 0.294658 -0.435845 -0.289437 0.037349 0.492610 -0.920548 0.533156 0.001122 -0.274991 0.265501 -0.742449 -0.326191 0.331796 0.023976 0.079973 -0.618794 -0.139081 0.389149 -0.853029 0.209297 0.093460 0.107621 -1.097517 0.281193 0.461134 -0.429133 0.097008 -0.120092 -0.452138 0.856866 -0.409227 -0.006389 -0.463213 -0.532447 -0.012567 -0.741967 -1.423806 0.051502 0.142049 -0.577515 -1.067868 -0.397085 -0.989493 -0.634436 -0.535818 -1.247011 0.194800 -0.447822 -0.464842 -0.633934 0.296486 0.817765 -0.950361 -0.283756 -0.264938 -0.113207
过 -0.199400 -0.430633 0.355405 -0.086004 -0.121781 0.039333 0.193790 0.828991 -0.874605 0.264652 0.010965 -0.506596 -0.737207 0.616112 -0.039123 -0.114528 -0.177969 0.334692 0.394740 -0.205847 0.327066 -0.080820 1.390714 -0.706456 0.054903 -0.240532 -0.240196 -0.031595 -0.092230 -1.041613 -1.013422 -0.430529 0.277202 0.533203 0.513264 -0.126578 -0.227481 -0.087654 -0.118640 0.188486 -0.818809 0.284384 -0.416520 -0.492930 0.221405 -0.321971 0.791722 -0.172705 0.167268 0.130142 -0.399450 0.539679 -0.006116 0.039388 0.080909 0.440099 0.577017 -0.677553 -0.166602 0.292806 0.365301 -0.067381 0.379594 0.355525
此 -0.503372 -0.195944 0.472496 0.030518 -0.335000 0.396105 0.433803 0.401015 -1.048712 0.463653 0.166301 -0.176665 -0.517376 -0.201466 -0.319713 0.158327 0.290397 0.883093 0.102481 -0.313753 0.096663 0.071372 1.424205 -0.477457 -0.858239 -0.629652 -0.265089 0.328460 -0.582450 -0.218038 -1.257724 -0.045300 -0.105016 0.029007 0.545617 0.075139 -0.292052 0.033691 -0.934493 0.438723 -0.328566 -0.527540 0.330584 -0.143574 0.628686 -0.418017 0.263235 -1.139329 0.572430 0.532564 -0.234854 0.538519 -0.531739 -0.837982 -0.517039 0.699564 -0.269992 -0.251215 -0.087648 0.215975 0.052895 -0.360182 -0.221870 0.835951
机 0.088970 -0.437695 -0.712676 0.092828 0.365000 0.032858 0.423049 0.496185 0.455439 -0.201572 -0.128662 0.490529 -0.333879 0.230504 -0.548817 0.082664 -0.659374 0.899393 -1.669753 0.551411 0.359423 0.257876 0.398370 0.110036 0.231115 -0.298212 0.001654 0.059987 0.294125 0.176440 -2.047377 0.592369 0.692568 -0.414205 0.734436 0.413222 0.008961 0.335710 0.965727 0.396198 -0.444922 -0.087799 -0.307879 0.220448 -0.529456 0.041661 0.557722 0.269298 1.704653 0.813392 -0.146257 0.573954 0.027394 0.496348 0.291546 0.585321 0.099059 -0.932247 -1.128323 0.223995 0.657882 -0.150997 -0.910343 -0.182227
间 0.659914 0.108934 0.219995 -0.358141 -0.493744 0.568854 -0.387338 -0.934155 0.293683 -0.851567 -0.063019 -0.877927 0.249019 -0.560395 0.140442 0.232794 -0.775928 0.323212 -0.126088 -0.389145 0.115436 -0.333675 1.044456 0.193654 0.026510 0.471465 -0.525086 -1.135977 -0.029439 0.292794 -1.049060 -0.238114 0.104743 -0.078329 0.656095 -0.556929 0.012307 -0.045488 0.303594 0.074938 -0.399063 0.467632 -0.105550 0.650399 0.340742 0.623196 0.258978 0.730250 0.206671 0.635969 -0.283849 0.053343 -0.739972 0.548820 -0.180369 -0.568602 0.260808 -0.830144 0.403198 0.620884 -0.437052 0.248448 -0.299731 0.024951
度 0.201409 -0.131180 -0.581589 0.536140 -0.477440 -0.340606 -1.198208 -0.362115 0.242477 -0.962861 0.342405 -1.214346 -0.345117 1.226753 0.442966 1.103761 -0.040828 0.450743 0.162501 -0.828282 0.218897 0.348357 -0.051463 -0.768482 0.392593 0.483272 0.000183 -0.682069 -0.949407 0.324238 -1.148574 -0.084055 -0.150736 1.083346 0.245369 -0.004240 0.443466 -0.822213 0.018815 0.085059 -1.029880 0.270018 -0.614579 0.122880 0.647722 0.126326 0.817640 -0.813485 -0.078099 -0.169334 0.205785 0.562349 -0.288882 0.586434 1.939780 -0.204756 1.547482 0.399670 0.870596 0.093212 0.334840 -0.581874 0.594267 0.096203
得 -0.082902 -0.397112 -0.237780 -0.337538 -0.003184 -0.515830 0.416816 0.558353 -0.728019 0.119570 -0.362568 0.240315 -0.876232 0.490726 0.405134 -0.263461 -0.131778 0.611426 0.641191 0.544178 -0.098181 0.556890 0.432926 -0.439426 -0.472166 -0.362305 -0.139758 0.072243 -0.925190 -0.498521 -0.839363 -0.661810 -0.081646 0.046732 0.331464 0.071957 -0.068604 0.054072 -0.663050 -0.250085 -0.789064 -0.183521 -0.013397 0.285925 0.589579 -0.291288 0.597452 -0.138384 -0.206689 -0.284105 0.181533 0.093221 -0.100880 -0.387983 -0.314399 0.331080 0.910520 0.040304 0.511854 0.318337 -0.581338 -0.266284 0.768107 0.347601
事 0.464286 0.305066 0.482589 -0.746043 -0.364821 -0.192864 -0.451265 0.754994 -0.701482 -0.349741 -0.106683 0.346132 0.675340 -0.346048 -0.448776 0.056125 -1.079765 0.572019 -0.293874 0.355943 -0.063360 -0.291021 1.005100 0.578739 -0.498982 -0.301964 -0.071931 0.375068 0.480684 -1.081748 -1.223668 -0.396298 -0.320839 -0.265459 0.186658 0.775737 -0.429952 0.120069 0.280093 0.718025 -1.096702 -0.025214 0.226167 0.090398 -0.167271 0.234219 -0.108219 0.136399 0.641840 0.728462 -0.197992 -0.218881 0.150807 -0.157250 0.425263 0.167563 -0.757314 -0.092858 0.387127 -0.668490 -0.366145 0.116524 -0.973133 0.304047
